2808 50
1 0.058405768 0.084072754 0.33852887 -0.007450898 0.387163 0.3231406 0.39075026 -0.3008505 0.3585189 -0.32600302 0.06614116 -0.03954988 0.32075718 -0.1218852 0.0072564166 0.06988252 0.16300243 0.034453962 -0.35087067 0.22235523 -0.5183439 -0.0086337505 -0.11089061 -0.0782999 -0.15812004 0.037636753 -0.3984519 0.5159327 -0.2833438 -0.40556377 -0.3284206 -0.18614806 0.050761994 0.21870624 0.11146349 -0.07793175 0.18864179 -0.17492098 -0.4513106 0.06297128 0.4040307 -0.48833814 0.15204157 -0.3086416 0.35243893 0.11668574 0.23174968 0.31456023 -0.015713902 -0.038045745
70 0.22098008 -0.49747318 0.37416458 0.15181224 0.43681714 0.28395468 0.780949 -0.5793375 0.7390796 -0.59033257 0.53363 -0.24487121 0.4758235 -0.20463908 0.3351791 0.09179216 0.41063046 -0.089808315 -0.42198798 0.3894588 -0.6409132 -0.1310259 0.7904196 -0.5660195 -0.51457334 -0.0771077 0.049154766 0.88459504 -0.2620411 -0.7347823 -0.5760162 -0.942783 0.22828938 0.20680684 -0.378986 -0.5642073 0.91586566 -0.69961834 -0.05082852 0.4340839 0.8756062 -0.8091149 0.26181063 0.06971358 0.771773 0.20425819 0.88940907 0.5599443 0.20537704 0.2148931
219 1.0236914 -0.40204188 -0.59747577 0.70423746 0.56410265 -0.8017138 -0.30014104 -0.77826774 -0.38218057 -0.40429264 0.09132935 0.6606462 -0.2635631 0.097387545 -0.31358406 0.6037693 1.0572004 -0.14189959 0.23433237 -0.08197882 -0.5307045 -0.5204943 -0.16843873 -0.07024845 -0.19170907 -0.3083212 -1.3133035 0.08765508 0.06921019 -0.40186945 0.5790654 0.7254395 0.6194609 -0.35514325 0.708661 -0.14524207 -1.0865103 0.06482098 -0.7542109 0.67418647 0.53285354 -0.5765223 1.043703 -0.3865537 0.67858905 0.54036075 0.9303398 -0.47233176 -0.20663178 -0.18290457
152 0.76516604 -0.1373482 -0.085657634 -0.3905606 0.27555785 0.256602 -0.08776489 -0.05116451 0.039208326 -0.6173232 -0.23038505 0.48285216 -0.20082846 -0.3327153 0.055729896 -0.3637345 0.3361859 -0.23183323 -0.15306275 0.5775883 -0.025915375 0.5728618 -0.44137844 -0.029691406 -0.5262154 0.60792345 -0.17689121 0.544726 0.30261633 -0.3369925 -0.48213136 0.6775436 0.09993665 0.37144524 -0.14364372 0.5191508 -0.30093443 0.52732384 -0.2866648 0.64584106 0.02519805 0.32150722 -0.18491274 -0.4892871 0.11286149 0.34098306 0.5691923 0.27564406 -0.26632652 -0.36824256
7 0.52735865 0.37043592 0.5835588 -0.24567111 0.26273182 0.88363093 0.23908298 0.6390771 -0.010179356 -0.10022096 0.14549284 0.6721902 0.5275316 0.2831527 -1.1109276 -1.0541192 0.43406242 0.3506778 -1.0516298 0.85183764 -0.89358324 0.87283117 -0.13778211 -0.08143071 -0.6879808 -0.18041475 -0.2841857 0.2588254 0.44183108 -0.36415556 -0.29594213 0.50082964 -0.15488565 -0.46207482 -0.49077266 -0.09836923 0.50505483 -0.7979405 -1.0277176 0.46117914 0.8958398 -0.43602404 -0.35206944 0.5404356 0.4048569 0.75702375 0.094041206 0.44609758 0.27377218 -0.2768425
84 0.4981848 0.19927849 -0.23808938 -0.31038418 -0.46090433 0.3908183 -0.25106248 -0.67977154 0.47402728 0.4413273 -1.027239 -0.3035182 -0.31425118 -0.85725814 0.48925638 -0.19013134 0.34333023 -0.18281558 -0.01889285 0.2558602 -0.8079565 0.2168632 -0.6817347 0.57725877 -0.08681852 0.35278347 -0.6035171 0.23761839 -0.24082206 -0.726937 0.061988696 -0.059764035 0.07745906 0.28687465 -0.23154506 -0.6932693 0.716538 0.34281075 -0.21262869 -0.10111748 0.39380395 0.030142054 0.0002753964 0.07648611 0.39063606 0.68837756 0.7248135 0.32281995 -0.9005151 0.13891764
37 -0.0044069 -0.464513 0.40444937 1.2097659 0.8657862 1.4092908 1.1022273 -0.5842622 0.06851732 -0.66761255 0.99919736 -0.76630723 1.3007889 0.836377 -0.24328616 0.9159254 0.5795197 -0.1800472 -1.0237006 -0.8260244 -0.9848456 0.03274712 -0.4131436 0.24451825 -1.5659996 -0.63210225 -1.683974 0.0029713616 0.09054932 -1.2445395 0.09794894 -0.553379 0.19376065 0.80236185 0.6185377 -1.7778994 -0.26661235 0.02199538 0.2210297 -0.9415218 0.14771844 0.4753015 0.75904316 0.8152539 -0.33801338 0.7671562 -0.98458487 0.15854342 -0.315272 -0.8902156
203 0.08281596 -0.27888274 0.36148152 -0.45894918 0.046886355 0.15811129 0.16500548 0.0074781645 0.26687482 -0.93447846 0.2093197 0.42833865 -0.44017863 0.1261309 -0.19301447 -0.08455603 0.98143643 -0.22729272 -0.06105367 0.2671969 -0.5370145 0.3008358 -0.03112673 0.2643366 0.23649555 -0.2881591 -1.0546937 0.41156453 0.85657793 -0.704367 -0.26339617 0.12117589 -0.83776885 -0.12956938 -0.20968017 -0.89047956 -0.011404917 0.7886971 -0.20779912 -0.12754966 -0.39940658 0.24210592 -0.11910749 0.13231547 -0.37549102 1.014096 -0.4370425 -0.5096292 -0.20510904 -0.99806994
0 0.55645066 -0.7501696 -0.31279564 0.84216756 1.2628983 0.7295822 0.1981686 -0.41930932 -0.2595269 -0.49549806 -0.79775184 0.81042325 0.5512991 0.048966285 -0.3107863 -0.23367184 0.4733834 0.48261946 -0.86873895 -0.08245227 -0.50468403 0.44782534 -0.601681 -0.6308027 -0.26764476 0.061704002 0.5660252 0.17707491 -1.3649685 0.42894542 -0.45341414 0.7899903 1.1878102 0.05237524 -0.3744329 0.48653054 -0.5818888 -0.014473047 -1.0997218 0.1527428 0.22436148 0.33397344 0.5433979 -1.4094428 0.18064402 0.41087246 0.17136283 -0.53089964 0.03211714 -0.9694229
294 0.07965338 -0.4083327 -0.22221534 0.48634264 0.10400814 1.089194 0.57705575 0.13255008 0.5974831 -0.70702195 0.24718155 -0.74656785 -0.0004461523 -0.5048522 -0.8574201 0.9171319 -0.37633392 0.105022304 0.31237692 -0.3294456 -0.5439339 -0.47302824 -0.5693323 -0.24358757 0.41658822 -0.15209508 -0.5356011 -0.3230054 -0.91032535 -0.07451545 0.060285635 -0.41539097 0.17091508 -0.030718604 -0.94198895 -0.7605817 -0.07349765 -0.33978027 -0.8959797 0.056784153 -0.6942381 0.563996 0.63210577 -0.41001108 0.42828295 0.99976885 -0.7625766 0.67144835 -1.0225654 -0.19470796
40 -0.65352184 -0.2043062 -0.719581 0.28116494 0.9639095 0.17255414 0.37197587 0.25098184 0.5891984 -1.5872477 0.7936428 0.1854113 -1.3355166 -1.5512896 -0.622213 1.0160395 0.11787454 0.19085033 -0.83973527 -0.34875643 0.5340979 -1.0396885 0.61449575 0.7678686 0.47098243 1.076945 -0.053700738 1.0594938 0.34720692 -0.81368953 -0.84937996 0.6596042 -0.21331136 0.4102969 -1.1206862 -0.23824821 0.27050847 -0.7081534 -0.88509166 0.43555593 0.3644458 -1.0589507 0.30531868 -1.1629826 0.6507657 1.4733407 -0.990151 0.7486628 -0.81150484 -0.01773117
269 0.777433 -0.5757109 0.112242125 0.038893163 0.440873 0.21953069 0.096012816 -0.7106464 0.27117637 -0.269796 -0.8657443 0.6912656 -0.26576042 -0.09074191 -0.7870658 0.24057885 0.24649884 -0.25403765 -0.09979165 0.44605342 -0.7958986 0.3651888 -0.5779867 -0.42219886 0.23249087 0.4574325 -0.47007695 0.76759315 0.17214376 -0.25519815 -0.51141125 -0.0776062 0.41720152 0.0753541 -0.06960398 -0.044247165 -0.30998507 -0.027094824 -0.32169536 -0.11108271 -0.17940016 0.3802562 0.24651155 -0.5555626 -0.2707152 0.48352796 -0.71288383 -0.03338561 -0.5051137 -0.25661027
91 -0.3815796 -0.24793334 -0.5007101 -0.56510514 -0.039431736 0.86903024 0.42407778 -0.7683666 -0.069300674 0.35738426 -0.4195128 0.074078836 -0.08571296 -0.38774163 0.100823015 -1.1419921 0.50221306 -0.17507932 0.14493819 0.10189766 0.34641373 -0.92642003 -0.6407184 0.4036244 0.13219316 0.83648497 -0.7348576 -0.18761483 -0.6860325 -0.35898295 -0.4035177 0.6652166 -0.83237314 0.15168992 0.009460463 -0.815239 0.16866024 0.7657552 -0.95647734 -0.22587729 1.0221224 -0.004349019 0.4771913 -0.44819218 -0.18609098 0.59876037 -0.050787073 1.1666802 -0.86564445 0.23694733
39 0.9226377 1.1015434 0.68551826 0.23736948 0.96206224 0.90484416 -0.30929106 -0.8206825 0.7192183 0.1981964 0.28028086 -0.31882924 0.12356638 -0.006187026 -0.2249834 0.7098401 0.91523826 0.44983944 -0.34756845 -0.41503784 0.48063982 -0.61137116 -0.8537741 -0.42064354 -0.6230892 -1.2696187 -1.1372011 -0.22544265 -0.5662847 0.55740386 0.30375403 0.5821073 -0.23767014 0.572217 -0.6001823 -1.40246 -0.22696313 0.8734427 0.32050166 1.31689 1.4356334 -0.44332308 0.81300455 -0.6650751 1.2083337 1.1458013 0.38712054 0.63483804 0.6014858 0.5607635
263 0.4368193 -0.3021389 0.04176202 -0.3700608 0.21613419 0.3944237 0.21867114 -0.07895886 0.5355 -0.43136942 -0.11219023 0.8897967 -0.594999 0.47302288 -0.50556743 -0.717564 0.10854916 -0.3256728 0.03187689 0.677504 -0.65926576 1.1405202 -0.04179667 -0.46783394 -0.28957734 0.16185737 -0.6432527 0.75470775 0.08394911 0.29696545 -0.45430896 0.78875035 -0.17273587 -0.028920913 -0.40687677 0.03197623 0.09722694 0.04237634 -0.42789015 0.6683768 0.69774914 -0.38352486 0.011382512 0.041468073 -0.13300365 0.37927714 0.19013669 0.18715377 -0.7736545 -0.5978185
106 -0.4688347 -0.44991982 0.13373844 0.34923556 0.23448068 0.4855848 -0.11260185 -0.6502606 0.15797321 -0.83023286 -0.14093085 -0.57691044 -0.42260915 -0.6535362 0.6664123 -1.4288502 0.3669207 -0.09235121 -0.43134734 -0.116598904 -0.14218022 -0.10434899 0.47931898 -0.41014063 -0.20201899 0.699608 -0.32211602 0.45288625 0.089142054 -0.37777767 -0.39754912 0.8289521 0.3893409 1.5669339 -0.42955062 -0.3820769 -0.0006825021 0.44275168 -0.50605536 -0.21271734 -0.29630068 0.0740044 -0.9265959 -0.108229496 -0.5297862 1.3180358 1.3899431 0.46422398 0.19109018 0.0858621
6 0.29909265 -0.5987962 -0.5617669 -0.20415448 0.12613659 -0.28730765 0.45500073 -0.18668804 -0.08401659 -0.4215231 -0.5746545 0.83355 -0.990628 -0.122245274 -0.26557878 -0.326293 0.6972584 0.1493428 -0.3043541 0.62546563 -0.16712908 -0.2419007 -0.2203638 -0.26095203 0.5128084 0.9627879 -0.62487173 -0.14264056 0.27234268 -0.5068602 -0.63319737 0.48071533 0.13103737 0.3316249 -0.29590306 -0.32974523 -0.5372519 0.23192255 -0.5692783 0.20738743 0.077938244 0.060669698 0.68771625 -0.29281875 -0.12949458 0.23537916 -0.004777366 0.19201674 -0.40401852 -0.5542404
77 0.8997478 -1.1651869 -0.39590287 -0.65115434 0.2534397 0.7934744 -0.46573564 -0.92537683 0.9332521 -0.01542488 0.017289799 0.45901224 -0.63080955 0.32770056 -0.21351945 -0.35111862 0.54726124 -0.90677094 -0.1439624 -0.35837477 -1.0027753 0.93477505 -0.51178676 0.29011366 0.1643338 0.53762037 -0.6001336 -0.36292985 -0.6472884 0.3380129 0.25351024 1.3434936 0.2920595 0.051651064 0.4412247 0.0019729706 0.31588417 -0.30209234 -0.6698462 0.22170673 0.9435844 -0.95646065 0.3153585 0.09145559 0.9219685 0.12120542 0.072862 0.48646188 -1.3439969 0.26899323
181 0.4496347 0.1455971 0.31018084 -0.27783278 -0.01929545 1.0294797 0.14401793 -0.5516014 0.16352913 0.5341863 0.11798821 -0.24150662 -0.45008928 -0.2627248 -0.1248193 -0.8816761 0.38036782 -0.3772294 0.174543 -0.32776883 -0.2905657 -0.88577986 -0.054965388 -0.44682956 0.17916043 -0.48745883 -0.48882252 0.2554552 -0.41656968 0.23266691 0.25332567 0.47399437 0.14054109 0.13497631 -0.18724991 -1.008666 0.23627841 1.2823744 -0.12679875 0.08565381 0.20532812 0.34652367 0.52489287 -0.105392255 0.16581787 1.2120217 0.3202058 0.57747054 -0.35478038 -0.07325436
122 0.65332747 -0.030308746 0.042990316 -0.12286173 0.45339414 1.741289 0.12558773 -0.40887937 0.46402434 0.029840361 -0.30636674 -0.73657686 -0.72111535 -0.48888284 -0.146562 -0.45990974 1.1877819 -0.19019446 -0.21288562 -0.022260599 0.2841857 0.9119426 0.2945892 0.12634899 0.63821125 0.022445941 -0.19911052 1.266522 -0.3983617 -0.15055288 0.44618335 0.42931825 1.018336 0.6463727 -0.09884433 0.90861446 -0.24212942 0.8898589 -0.16697903 0.28351003 -0.32530886 1.1110047 1.0028245 0.09110282 0.5745895 0.29951993 -0.4763188 0.40017426 0.33497098 -1.0083681
897 0.0675516 0.61357147 0.60740644 -1.3412832 0.1718952 1.4625695 -1.0437149 -1.526535 -0.2356544 -1.7054219 0.18805875 -0.20243232 0.8869451 -1.1382512 -1.0863382 0.7474562 -0.05980162 0.2992224 -1.0385418 0.013188734 0.3033239 0.17074843 0.9924515 0.111503586 -0.12173226 1.2265519 -1.3907249 1.339779 -1.088657 -0.5410681 0.08372366 -0.29404628 1.1310123 0.5773281 0.027721284 -0.7113341 -0.78672695 -0.8516251 -1.638837 1.4825314 -0.17943598 0.31271082 0.24292712 0.5785809 0.9625338 -0.09190206 0.65367633 0.10617902 -0.64953816 -0.017708883
4 1.071866 -0.4586562 0.0646507 -0.34142485 0.2208583 0.013750577 0.29232532 -0.13146694 1.0482275 -0.39386955 -0.63996536 0.16253535 -0.88611513 -0.68710047 -0.15101841 0.10092981 0.76700836 0.34695375 -0.17985934 0.50160754 -0.24229702 0.5330094 -0.4022198 0.7537234 -0.14095102 0.32282278 -0.88232714 0.118842915 0.19881862 -0.1917675 -0.61149585 0.052812174 -0.67080253 0.08216725 0.19584656 0.04760022 -0.008405386 0.75382936 -0.28902912 -0.027632644 -0.015625298 0.68279314 -0.35684156 -0.37274504 -0.12600063 0.8856133 -0.4424097 1.0251192 -0.96015507 0.41505048
204 0.69248575 0.061272703 -0.20672765 -0.33369982 -0.021385642 1.2744917 0.16528952 -0.6266995 -0.2377386 0.60567087 -0.6539721 0.38777024 -0.59213305 -0.08028375 -0.4244656 -0.572099 0.27705294 0.83434993 -0.35806847 0.7067314 0.18766624 0.24271569 -0.71263146 0.024412923 0.22194925 -0.023808002 -1.2545521 -0.28850082 0.46495104 -0.72331065 0.31557298 0.63224256 -0.18699308 0.08799594 0.45055598 -0.13949516 -0.08893806 0.9380065 -0.283653 0.41539937 0.7544292 0.3359394 1.2233758 0.5864745 -0.2922671 0.5100766 0.40989515 0.20198692 -0.2999369 -0.9486797
638 0.7740671 -0.7880908 0.014960707 0.22226293 0.23144494 0.52539104 0.35121763 -0.18989359 0.3488381 -0.17574422 -0.51193374 0.1914145 -1.1028483 -0.1573179 -0.564278 -0.1989938 0.70886326 0.57504654 -0.45360422 0.4457662 -0.25474894 0.4758065 -0.1926408 -0.7081319 0.36216855 0.224729 -0.26387 -0.38021094 -0.91240275 0.51835227 -0.0016855223 0.71828413 0.590576 0.9075809 -0.55914897 -0.85712034 -0.059957903 0.30206397 -0.675313 0.16577119 -0.25675043 0.6181154 0.38110042 -0.045607463 -0.31836843 0.1287431 0.42767492 -0.48790136 -0.4819896 -0.7991863
124 -0.25089693 0.1434345 0.5623934 0.09659113 0.31810036 1.1657174 -0.16244617 0.6801222 1.0973053 -0.5973554 0.22876118 -0.92153454 0.735638 -0.80279016 -0.8130125 -0.82779956 1.0026845 0.3903697 -0.58580714 0.0796445 -1.5612051 1.1649177 -0.56353885 0.57604253 0.5806407 0.46734664 0.058249734 0.1732368 -0.124719776 -1.0910573 0.52321583 -0.31692353 0.8869462 1.2987211 -0.43462992 0.3536205 0.10967006 1.1293644 -0.5724939 0.56452894 0.27782091 0.73271173 0.9031772 0.55713123 0.20681041 1.1069274 -0.91320246 1.1150237 0.358166 -0.5284567
184 0.5144664 -0.12321557 0.41690603 -0.46660638 -0.025442718 0.39796123 -0.24568583 0.23981778 0.93837166 -1.1586783 -0.39079452 -0.47001868 0.9206889 -0.23754647 -0.73046416 0.5489623 0.4005028 -0.6571278 0.30356717 0.3799006 -1.081194 0.43792954 -0.9081932 -0.61711514 0.47652674 0.137416 -0.25724658 0.66427314 0.040563893 -0.937141 -0.6266 -0.30580005 0.28793627 0.091184124 -0.61199284 -0.36977446 -0.68553984 0.90370315 -0.7750407 0.57066166 0.08943204 0.7610727 0.38180375 -0.878933 -0.25450084 0.1746365 -0.90245175 -0.022801863 -0.5889609 -0.7604576
98 1.0284781 -0.2851312 -0.015156048 0.12820028 0.18378094 0.96376526 0.17978317 -0.3766967 0.44509536 0.17730659 -0.24495839 0.06921976 -0.8488961 0.20140515 -0.5661497 -0.27727816 1.1669586 0.4381217 -0.13832548 0.46528465 -0.14127459 0.13667421 0.072817035 -0.09350028 0.45744243 -0.7799713 -0.75216895 0.268856 -0.068217926 0.21011183 0.43083033 0.5071994 0.47404197 0.1612982 0.23165292 -0.400715 -0.39767274 1.008721 -0.39195722 0.24659337 0.23501582 0.627509 0.5426095 0.117273375 -0.06588004 0.6405689 -0.31214947 -0.18408757 -0.12324488 -0.69738626
151 0.4741602 -0.7773181 -0.23283654 -0.63012516 0.14487611 0.27327892 0.24842717 -0.23410079 0.727856 -0.40999514 -0.21900406 0.66622233 -0.87347454 0.01592552 -0.18949986 -0.7646236 0.46026483 -0.17369704 0.21388462 0.31813565 -0.26045522 0.553363 -0.3547202 0.32874662 0.14067519 0.3317437 -0.56476474 0.0023012771 -0.20711286 0.14729156 -0.6516213 0.57405335 -0.53259814 0.04299806 -0.16952647 -0.016466575 0.0053356164 0.25036508 -0.51471096 0.20830595 0.37783533 -0.3009441 0.09398504 -0.43465918 -0.008943108 0.6130481 -0.3386445 1.1216677 -0.9471678 -0.03631716
97 -0.8134575 0.77733064 0.44208387 -0.68752694 0.48843735 0.85546607 0.6740446 -0.39131168 0.09369643 -0.9355971 0.37938 0.8442725 0.26314408 -0.3851143 0.630033 0.40963554 0.6603321 -0.84554476 0.046577737 -0.5032934 -0.3803453 0.5503976 0.5345787 0.11242663 0.395022 0.6332597 -1.8097326 0.38254976 0.3017774 -0.8221431 -0.9341932 0.46645972 -1.0433491 0.5827243 -0.48448184 -0.8492726 0.8102268 0.090593144 -1.1539836 -0.15880318 -0.47207624 -0.4274596 -0.07958174 0.8307877 0.8475314 0.8407861 0.102985494 -0.6270104 -0.5567503 -0.69044673
586 -0.14442946 -0.3565718 -0.2787726 0.02662297 -0.14304642 0.37382424 -0.06963367 -0.3821296 -0.40785933 -0.20098545 -0.123368695 0.13981804 -0.460583 -0.38821912 0.555271 -1.1160606 0.7055814 0.03759365 -0.19929962 0.04224297 -0.24148135 -0.5978457 -0.15489443 -0.23655637 0.1987995 0.5636357 -0.6455052 0.3559963 0.04484832 -0.35343918 -0.30629042 0.6088116 -0.08943138 0.7659478 0.13957165 -0.9900764 -0.5838276 0.84092337 -0.37850255 -0.13966982 0.45621482 0.16049506 0.31782752 0.19564341 -0.32673237 0.58777493 0.42216456 0.48136058 -0.004496676 -0.5081769
256 0.43227124 -0.15845071 0.0034530575 -0.15550224 0.36110008 0.9403762 0.0570223 -0.29127508 0.537235 0.019065449 0.018661672 -0.026202632 -0.37495035 0.82361156 -0.6154524 -0.49335438 0.90707994 0.57733065 0.11672983 1.141336 -0.56715167 0.123067975 -0.07735419 -0.21503761 -0.106306024 -0.5289329 -0.46046665 0.37559488 0.13097176 -0.25726387 0.17520058 0.6144742 0.32976958 -0.0043354603 0.37353852 -0.36449412 -0.58418417 0.36890417 -0.7459777 0.37746757 0.87051725 -0.13823141 -0.5166922 -0.009283198 -0.059402514 0.28452975 -0.43655163 0.43186077 0.12380718 -0.48512712
144 0.59346545 -0.66278 -0.14964265 -0.18726337 -0.041739512 -0.14521557 -0.3651762 0.6844185 0.9109683 -0.94379574 -0.15286174 0.17496887 -0.03851791 -0.10719416 0.30892673 -0.22271454 -0.05637443 -0.22049932 -0.8377207 0.6980588 -0.07041806 0.078641854 -0.4894213 0.35005954 -0.68035454 0.5797694 -1.0698048 0.47043926 -0.115056045 -0.11175808 -0.9796797 0.6889234 -0.26579922 0.53033257 0.4887779 -0.14542107 -0.14626703 0.17378223 -0.6678609 0.47623143 0.5945089 -0.07987695 -0.56990415 -0.95782864 -0.46003053 0.46758655 -0.38792214 1.368137 -0.5968469 -0.16190343
2649 -0.33197075 -0.29039726 0.054230224 0.08169618 0.3059305 -0.009100875 -0.21614562 -0.5867711 -0.17489111 -0.6560227 0.03215871 0.078585915 -0.54443604 -0.26783827 0.3977433 -0.8320398 0.6692711 0.09674795 -0.123150624 -0.24052495 -0.17041945 -0.45794466 0.0798937 -0.3738813 0.2692547 0.13947345 -0.5763198 0.36857042 0.2148044 -0.53086686 -0.08584855 0.7202033 0.15160386 0.6766579 -0.07628693 -0.64910716 -0.36672524 0.33804014 -0.53824556 -0.13312165 0.034112096 -0.03051133 -0.41721562 0.07296187 -0.037645668 1.2225568 0.8527245 0.12894493 0.14325243 -0.52107006
2558 -0.22538695 -0.25766146 0.19863422 0.16943954 0.83326846 0.1680914 -0.08834128 0.30886778 0.48673385 -0.78602445 0.35216862 -0.46957237 0.19733773 -0.68228024 -0.18626429 0.4308763 0.23492691 -0.006469281 -0.15002884 -0.2978449 -0.18561837 -0.23573984 -0.43230882 0.68252045 0.011266017 0.46079013 -0.44959944 0.3969322 0.35026485 -1.1772542 -0.42253 0.1763163 -0.12844856 0.36132804 -0.7359822 -0.6847461 -0.59801406 0.26501438 0.21551125 0.12532921 -0.21864201 0.3566145 0.3417924 -0.5042643 0.3213361 0.9283303 -0.9500177 0.14768496 -0.6106636 -0.90685767
61 1.0132732 -0.08386799 0.13300021 0.0676001 0.39692265 0.79834473 -0.07348587 -0.39703637 0.7097879 -0.0048941323 -0.183384 -0.060533445 -1.1054851 -0.18482022 -0.5417477 -0.22680594 0.75234956 0.1145198 -0.1670731 0.3088646 0.25004125 0.59186214 -0.094366774 -0.3768708 0.04546608 -0.017300714 -0.27989426 0.37096384 -0.47574815 0.6787092 -0.11634433 0.7107241 0.124625355 0.5163806 -0.31773028 -0.16586564 -0.12973502 0.57497245 -0.06872755 0.38539106 0.29276046 0.40044972 0.47537357 -0.01345852 0.20840032 0.22061832 0.18294947 -0.02261804 -0.2971617 -0.4372507
75 -0.5588663 0.20675798 -0.3922096 1.0704588 0.9743148 1.6732049 1.118579 -0.03831316 0.7976558 -0.5684666 0.66501015 -0.8454559 -0.41255686 -0.7151381 -0.35479292 0.13053359 -0.78222984 0.14322896 0.04924965 0.2746551 0.04554919 -0.18931556 0.05766417 0.2549726 0.77591646 -0.4311215 0.015341463 0.2949134 -0.25959015 -0.06897323 -0.53519356 1.0604482 0.4408715 -0.60041386 0.25233495 -0.5546904 0.30000335 -0.2829592 -1.4465071 0.45742872 0.8009484 0.40436816 0.9492622 0.61040145 0.15157224 0.64613134 0.65627843 0.5256902 -0.32935166 -0.60455906
2575 0.7203365 -0.837512 -0.14718564 -0.28525728 0.33746323 0.5905421 0.099948384 -0.4214777 0.8040917 -0.16147083 -0.21026853 0.47545925 -1.0395257 0.25988805 -0.52273643 -0.5503419 0.42526922 -0.05535096 -0.1732582 0.26361853 -0.40701428 0.86126715 -0.22633304 -0.18106256 0.20911896 0.407708 -0.27857012 0.04186821 -0.76887995 0.5854105 -0.09471822 1.0599645 0.22365516 0.29874852 -0.13850336 -0.2126601 -0.06180192 -0.053051364 -0.56898487 0.17525342 0.4137898 -0.12804383 0.3255483 -0.031292845 0.00077757146 0.09838974 0.067865066 0.21252161 -0.8245901 -0.3922328
99 0.47625864 -0.12773284 0.033437297 0.21497662 0.07245396 0.8967434 0.027403139 0.08150705 0.33052528 0.048422467 -0.027816387 -0.38187072 -0.44351077 -0.20656255 -0.57919574 0.08627636 -0.16838083 0.71101356 -0.19925937 0.27600372 -0.43668607 0.3227044 -0.6057485 -0.121176444 0.44991896 0.10865954 -0.4068737 -0.5391752 -0.29804903 -0.13299349 0.25796068 0.23242988 0.2599134 0.58133096 -0.36561096 -0.6615974 0.057202414 0.21384838 -0.39844096 0.3570597 -0.26035735 0.6223321 0.75026226 0.27109352 -0.07352823 0.5955984 -0.004165863 0.059107892 -0.5052733 -0.7487059
2723 0.1000455 -0.3343249 -0.07354931 0.08819649 0.59876245 0.13246697 -0.018172625 0.02341248 0.37927055 -0.77341086 0.20317061 0.0021914071 -0.33370948 -0.71795714 -0.47445697 0.46840158 0.13935071 -0.104708776 -0.04901254 -0.09912351 -0.16296774 -0.21495931 -0.20155723 0.40771127 0.16189967 0.4587887 -0.31024674 0.4964932 0.27614322 -0.6325153 -0.44378394 0.3367981 -0.08674388 0.03906186 -0.6535954 -0.4142762 -0.38074666 -0.0042068246 -0.14099613 0.19077432 -0.3206988 0.18349293 0.10593379 -0.6236412 0.32885706 0.8142899 -0.61014426 0.074268185 -0.6182994 -0.5939377
62 0.60613585 -0.13584788 -0.09556016 0.4117599 0.4140753 0.40792534 -0.15384528 -0.40216848 0.63941973 -0.36246428 0.14936739 -0.2387597 -0.6666069 -0.5362932 -0.448965 0.51253724 0.49254015 0.120082475 0.08004668 0.006331286 -0.1183133 -0.110720195 0.0360711 -0.1745573 0.2005778 -0.17143835 -0.20830117 0.5296091 -0.057193354 0.08755684 -0.14677832 0.23240972 0.037541892 0.096621595 -0.23581052 -0.46518472 -0.13437892 0.20965885 -0.024989212 0.18201515 0.17729032 0.16013837 0.34149793 -0.13654047 0.38148388 0.5560538 0.10337735 -0.3221516 -0.19834226 -0.5209058
163 -0.19963913 -0.23801605 0.26232395 0.072461605 1.0808299 0.85943073 -0.15072452 0.0058886367 0.25545606 -0.5771714 0.4475743 -0.75692147 0.63347346 -0.14196642 0.5315307 -0.015624896 -0.11937086 0.21985373 -0.24850415 -0.15138882 0.097029366 0.23629586 -0.45708916 0.39032188 -0.6289491 0.19026434 -0.6760436 0.31127194 -0.017384255 -1.2234279 -0.3308314 0.28174308 0.11702589 0.5650014 -0.14163698 -0.58165616 -0.57377803 0.24387151 0.5775025 -0.032020546 0.048085783 0.28395036 0.35971132 0.14504148 0.39911017 0.6176744 0.005316785 0.027283922 -0.5453631 -0.8784384
25 -0.06181491 0.18007952 0.27213493 -0.14532268 -0.15195617 0.99016726 -0.41223082 -0.5009606 0.45862433 -0.12770419 -0.12299343 0.2032805 -0.35503486 -0.07055846 0.1982744 -0.02514829 0.07613012 -0.23041354 0.169176 -0.062504046 -0.41429117 0.49396756 0.3417331 0.6032745 0.08336147 0.0003170346 -0.43433183 0.43467298 -0.024073532 0.16028543 -0.44225806 0.45901653 0.14396082 0.6929787 0.45230517 -0.85670704 -0.51352215 -0.336736 -0.3243757 0.34094116 -0.3084591 0.8486938 0.38443294 -0.5630604 -0.1960871 0.5763108 0.3185018 0.3173149 0.233979 -1.0216273
2189 -0.3136258 -0.5953213 0.35130194 -0.08194576 1.1635435 0.7266709 -0.25715443 -0.06684717 0.166722 -0.8186298 0.50260353 -0.4458161 0.354932 -0.23762207 0.9092439 -0.041345306 -0.21969526 0.6286025 -0.05416972 -0.22271611 0.13428369 0.43865085 -0.19994414 0.028633267 -0.42050833 0.00058769435 -0.35228944 0.38498712 -0.061411284 -0.8931145 -0.3406601 0.6809288 0.16882153 0.8649811 -0.17123643 -0.47194156 -0.60282034 0.14158918 0.2558774 -0.014893067 0.49599516 -0.14350203 0.11878422 0.38274384 0.3886682 0.53041106 0.18300198 0.051337466 -0.7082397 -0.57788634
52 0.8836457 -0.16700669 -0.19383195 0.22741719 0.09428628 0.6971782 0.15846507 -0.55401397 0.3469533 -0.7482768 -0.2733847 0.27903447 -0.34250754 -0.7461264 0.65004176 0.28962228 0.13712321 0.04057017 0.19184278 0.6787452 -0.010153854 0.6235965 -0.4086292 0.4253231 -0.62652403 0.5681155 0.14964463 0.5476619 0.38581982 -0.16577373 -0.41184133 0.13472077 -0.10735613 0.08184654 0.4896822 -0.07685923 0.181007 0.025745459 -0.87656623 0.66186017 0.3871962 -0.3269841 0.30480486 -0.25282437 0.3030005 0.53845996 0.9533171 0.4568874 -0.10080374 -0.062035765
549 -0.27799052 -0.22168641 -0.01651645 0.47240797 0.70768124 0.3101239 0.2634138 -0.048118178 0.42152062 -0.5871783 0.35117552 -0.21727706 -0.114648916 -0.6936811 -0.37036616 0.6046548 0.071705334 0.05261758 -0.10866892 -0.376718 -0.051231205 -0.51734895 -0.1459539 0.5542215 -0.10193204 0.30718353 -0.44160682 0.15121555 0.015118012 -0.60898054 -0.45721048 0.3891195 -0.056367327 0.16861233 -0.6428815 -0.74192476 -0.25220233 -0.35929045 -0.18457757 0.13210683 -0.1320847 0.05090348 0.33270055 -0.6730834 0.62569404 0.81313676 -0.77815145 0.39324194 -0.56686217 -0.5431567
243 0.34586233 -0.43453825 0.04911228 -0.41209105 0.31983674 0.44781896 0.14582057 -0.118817456 0.6201724 -0.5857457 0.068638004 0.44035208 -0.5066409 0.59071094 -0.53808016 -0.67402756 0.78687084 0.18457827 0.16459514 0.90300626 -0.48366004 0.64058155 -0.19464049 0.048527885 0.0598754 -0.4614305 -0.5927464 0.31415185 0.07204848 0.029842531 -0.20546108 0.48492298 -0.32137805 -0.21135929 -0.15682383 -0.42453897 -0.15329964 0.33771572 -0.4623268 0.44334635 0.59681183 -0.49638522 -0.3302229 -0.18261632 -0.18603085 0.6306242 -0.4142661 0.4712691 -0.18563832 -0.54838675
2 -0.11819733 -0.1619181 0.49515462 -0.08704 0.1552211 0.27974743 -0.09798732 -0.4185518 0.038569223 -0.3736079 0.08956916 -0.23485935 -0.40616018 -0.15241458 0.18114555 -0.90348935 0.38783357 -0.08675883 -0.077841334 0.043617807 -0.20113365 -0.45220903 -0.03645613 -0.3631612 0.19923198 0.009507464 -0.5691342 0.39185846 0.102642134 -0.41667837 -0.37589064 0.5432308 -0.08040617 0.5757619 -0.27641863 -0.5996694 0.018179493 0.67159206 -0.38968405 -0.050480656 0.13870698 0.013696871 -0.43363315 0.030142436 -0.19002157 1.1244788 0.69908154 0.3715609 0.059149932 -0.14300084
88 1.0813353 0.22244707 0.2626151 0.04676648 0.357204 0.57206106 -0.044857714 -0.5002065 0.6671362 0.09192162 -0.17432769 0.06281732 -0.80288935 -0.11555263 -0.36375004 0.04860589 0.9124293 0.34570208 -0.24913828 0.20235789 0.19358997 0.17127159 -0.3263664 -0.020027192 -0.14181067 -0.46849856 -0.98323065 0.030258212 -0.018906383 0.3924114 0.057375114 0.36513156 -0.22183493 0.2855291 0.12075624 -0.4592917 -0.16827656 0.85281354 0.005111051 0.51094294 0.5524671 0.221237 0.5076373 -0.22150357 0.25213555 0.63966846 0.02386148 0.31097522 -0.12358792 0.17583163
31 0.49088815 -1.2766762 0.3478369 0.249672 0.83365655 0.9387975 -0.159808 -0.41830543 0.27532825 -0.14114283 -0.23404694 0.20332435 0.31386888 0.019445594 0.75243306 0.65350336 0.41147378 -0.021649376 -0.16743995 0.9444359 0.2795126 0.22339098 -1.0261288 -0.12038974 -0.98752916 0.47802868 -1.0989566 -0.09513844 0.45933947 0.2163254 -0.47864568 -0.36007822 0.7895534 0.24280474 -0.08339024 -0.2587715 -0.3270411 -0.65890485 -1.3319414 0.9182581 0.07951116 -0.48170722 -0.11216964 0.12589565 0.43527696 0.52296305 -0.34667417 0.59690547 -0.3469935 -0.49317196
12 0.33268654 -0.045471802 -0.022466023 -0.009691461 -0.17679618 0.62616265 -0.2369637 -0.41552466 0.31710133 0.20625769 -0.6492379 -0.060776144 -0.5428186 -0.4375299 -0.206064 -0.1769734 0.43832493 0.088287875 -0.09620962 0.28978482 -0.6415789 0.25031236 -0.2347824 0.11658665 0.22382234 0.20649977 -0.5935562 0.2447767 -0.06068646 -0.04673966 -0.15136103 0.17101192 0.18966144 0.54879165 -0.044869725 -0.7287994 0.03733192 0.0945529 -0.34535134 -0.12808505 -0.14866322 0.3443867 0.43041316 0.010224845 -0.03818682 0.35764998 0.16608033 -0.17328718 -0.40917474 -0.42124155
74 0.4960944 -0.039516464 0.01796078 -0.19829747 0.05686789 1.0569422 0.04107066 -0.35766014 -0.09916395 0.22273354 -0.18001845 -0.15369068 -0.5427498 -0.24611926 0.10038624 -0.7434963 0.60075617 0.08542113 -0.22820275 0.05657674 0.090498164 0.008510527 -0.17904623 -0.041368768 0.17524683 0.103062935 -0.44859675 0.50530255 -0.07354593 -0.16144237 0.112063125 0.6798035 0.25530332 0.6039087 0.007881745 -0.27986482 -0.28466868 1.0590883 -0.116340816 0.24193093 0.1418758 0.69105613 0.635578 0.13394646 0.022352137 0.4916625 0.097570285 0.4020685 -0.014873483 -0.77030116
560 0.79323184 -0.19017878 0.1731539 0.15106162 0.57641774 0.3874951 0.040456463 -0.26457375 0.23554468 -0.19184446 -0.21421805 0.23039971 -0.24078824 -0.18558642 -0.28755155 0.22263914 0.6439109 0.28892598 -0.3890381 -0.0064854417 -0.050750013 0.35311663 -0.37837952 -0.490504 -0.19312298 -0.11595723 -0.26351953 -0.15838714 -0.53543586 0.32889482 0.0037714662 0.7079006 0.44570124 0.4858568 -0.2307433 -0.4011516 -0.33915806 0.50011927 -0.45428577 0.59428185 0.27876943 0.25272658 0.30785123 -0.35872003 0.14416575 0.19041729 0.81780225 -0.41670263 -0.06464365 -0.4422159
205 0.42560777 0.036029667 0.02397506 0.026369575 -0.10955703 0.8232996 -0.26759854 -0.43776783 0.2573748 0.23608366 -0.26810154 0.08008138 -0.6616332 -0.11617512 -0.22620122 -0.21315534 0.43004757 0.18200465 0.050898813 0.1568011 -0.38672906 0.12294992 -0.058593698 0.17454037 0.3058399 -0.18693407 -0.7890266 0.105980225 0.05961992 0.13044652 0.06260168 0.41903982 0.12038268 0.53463835 0.20960608 -0.88188714 -0.39367986 0.3230084 -0.25524712 0.15461959 -0.060694266 0.56617045 0.74898654 0.013017447 -0.1541499 0.5680925 0.17799953 -0.062303238 -0.081734575 -0.73089993
252 -0.3224168 0.07593437 0.44531164 -0.20368198 -0.32394534 0.714963 0.0049481136 -0.089807056 0.106979854 -0.24836947 -0.47548085 0.44714296 -0.9257273 -0.26530975 -0.31251 0.3278708 0.92320454 0.10792611 -0.3496229 0.61259437 -0.4326507 0.20008154 -0.05187351 0.33602193 -0.6135168 0.33528417 -0.5564797 0.1878533 -0.51564395 -0.53732836 -0.178597 0.32311338 -0.12105438 0.1990134 -0.14166674 -0.7153858 0.56407595 -0.24562679 -0.55755144 -0.005949172 -0.18524572 0.38696644 -0.09553009 -0.64862233 -0.08766737 0.84843457 -0.31151885 0.27277467 0.40581715 -0.6455124
1022 0.5899722 0.060075313 0.003973231 0.08441582 0.28900984 0.50504124 -0.0880997 -0.67016554 0.31598842 -0.26802123 -0.18490809 0.21624765 -0.404408 -0.56745535 0.4917152 0.41028783 -0.028701609 0.050744113 0.014463821 0.56313807 -0.18739694 0.55372465 -0.5212316 0.19683838 -0.5633888 0.44078952 -0.28360894 0.40021217 0.18284096 -0.29531628 -0.03274922 0.06378843 0.16639516 0.17794453 0.34100586 -0.38547376 0.3288562 -0.16301861 -0.43510753 0.53595436 0.4393433 -0.40281028 0.20600745 -0.10097394 0.41675076 0.5496288 0.8419866 0.46262422 -0.16618219 0.03708084
220 0.15462898 -0.27238598 0.080066666 -0.32011205 0.16370583 0.3162343 0.40256506 -0.52682805 0.4337282 -0.18725093 -0.2355504 0.026595479 -0.09833092 -0.4187108 0.045069054 -0.30636343 0.3415538 0.025382554 0.12270439 0.2488333 -0.12978767 -0.22829053 -0.23217486 0.44631386 -0.00070422696 0.30859983 -1.0180869 -0.10135597 -0.11203172 -0.3712981 -0.3649324 0.27913532 -0.76451534 -0.14685065 0.32916918 -0.3031285 0.08506051 0.618955 -0.75026864 -0.2219394 0.3313782 0.33276153 -0.004698316 -0.14467405 -0.10555703 0.64481574 -0.01887309 0.7995124 -0.6610144 0.24108064
104 -0.05424445 -0.40288606 -0.38763765 -0.09523151 0.37085748 -0.003909027 0.25767204 -0.029508378 0.3132726 -0.5070757 -0.110495664 0.19722378 -0.6173941 -0.627833 -0.13193825 -0.09946062 0.4073229 0.047843114 -0.115511596 0.01360167 0.075718544 -0.3842426 -0.21718329 0.5301705 0.11915054 0.7388715 -0.40114918 0.075097926 0.12850757 -0.5654743 -0.57296675 0.41233775 -0.3750882 0.29668227 -0.39839587 -0.30164444 -0.1402545 0.22114426 -0.40381384 0.024197338 0.14269681 0.005625748 0.22192074 -0.5723346 0.011952339 0.7596061 -0.5140093 0.68598855 -0.73160297 -0.097949065
8 0.004012605 -0.08497711 0.093415305 -0.19958638 -0.09246753 0.4611261 -0.10575185 -0.42918605 0.03768951 -0.030709485 -0.16292688 -0.15244913 -0.273959 -0.33171245 0.33544195 -0.6436315 0.4871752 -0.21668668 -0.0054722405 -0.027401283 -0.30916926 -0.3864923 -0.1918676 -0.026021224 0.1299314 0.14166157 -0.5995296 0.35396868 -0.064194605 -0.3944581 -0.09453962 0.30099472 -0.12187587 0.383962 -0.090429224 -0.8935838 0.036054946 0.80273503 -0.27131724 -0.09678147 0.25014836 0.15722692 -0.0036002514 0.061475307 -0.119761966 0.89783454 0.38675988 0.3358042 -0.26494238 -0.25782418
558 0.6716342 0.21919887 0.37494594 0.3146964 0.8473339 0.68660754 0.00718915 -0.36154577 0.40738422 -0.11087525 -0.0960217 0.018183555 0.045574497 -0.1531196 -0.24766448 0.37491447 0.6531169 0.396911 -0.42773077 -0.19378836 0.1319441 0.09094035 -0.50452155 -0.5504744 -0.23184107 -0.51771384 -0.30833983 -0.11016276 -0.6738126 0.40570474 -0.0907509 0.5341729 0.25068173 0.25457186 -0.35102034 -0.47748727 -0.21420462 0.63519305 -0.18252355 0.7495985 0.73305994 0.04452268 0.41969678 -0.63961357 0.46666455 0.5107654 0.51188385 -0.17798845 0.17095317 -0.18715444
791 0.49935067 -0.5267635 -0.17859165 0.04852901 0.5771085 0.2959263 0.23891968 -0.29637152 0.20544921 -0.3549963 -0.3867536 0.7236864 -0.3815677 0.180379 -0.3959178 -0.29492489 0.2648633 -0.1086672 -0.1238196 0.288921 -0.48853394 0.4652042 -0.24051869 -0.34706855 0.04679682 0.27352834 -0.262819 0.4569333 -0.311939 0.13059725 -0.34294838 0.56704354 0.448825 0.042822815 -0.29477748 0.13985172 -0.35823897 0.0141963335 -0.6108506 0.2639338 0.16073029 0.074698105 0.42462167 -0.5412265 0.05699915 0.3687967 0.03217016 -0.041298464 -0.28709713 -0.6789515
1465 -0.19644944 -0.047729626 0.2612357 0.47803003 0.39077064 0.8466627 0.2858581 0.027118048 0.4858073 -0.49889243 0.3305445 -0.47681576 0.67011786 -0.12088467 -0.22392526 -0.0043310965 0.52410775 0.108021766 -0.54624486 -0.24726494 -0.8542015 0.40065536 -0.2696016 0.3388231 -0.23026565 0.008108977 -0.5818543 0.08181548 -0.09549449 -0.7846635 0.06496757 -0.22513342 0.3780215 0.83885485 0.04183241 -0.43193862 -0.11346131 0.3338832 -0.22975238 -0.115764566 0.086830616 0.28803876 0.53773785 0.3496023 0.09074503 0.596939 -0.61281615 0.47854066 0.10210211 -0.5234435
1189 0.26397437 -0.31265706 -0.23065542 -0.28754586 0.4204182 -0.18541786 0.3018907 -0.23865907 0.09957321 -0.41009608 -0.28894016 0.5354493 -0.4855139 0.15375577 -0.19391124 -0.20766126 0.5545728 -0.060818564 -0.3413565 0.52685785 -0.19112273 -0.20492832 -0.062372427 -0.22527699 0.17864539 0.49161047 -0.59924686 0.3759708 0.12422707 -0.2899532 -0.5598249 0.3519185 0.3349768 0.0748041 -0.18812598 -0.2440823 -0.48404646 -0.1331601 -0.65786886 0.09267811 0.24342015 0.08939937 0.4946697 -0.32157224 0.29691532 0.14979056 0.13105835 0.15974987 0.011310262 -0.54996395
557 0.28958517 -0.784216 0.012374052 0.2618374 0.48926947 0.68735045 0.6242377 0.061871175 0.50183016 -0.57957166 -0.119589865 -0.27207989 -0.5638599 -0.52352715 -0.5421063 0.4934679 0.06775958 0.37121454 -0.10673582 -0.029671818 -0.18235652 0.019631997 -0.5764657 -0.41403255 0.41918987 0.050657094 -0.37150127 -0.36044118 -1.0793823 0.09282915 0.10645089 0.18087555 0.52991563 0.6000162 -0.935115 -0.92334765 0.08505257 -0.27783865 -0.9846903 0.08991609 -0.5444774 0.6041019 0.323158 -0.21193737 0.008932808 0.53448635 -0.1837689 0.04430693 -0.7476504 -0.6796748
458 0.55541617 0.3230981 0.20476437 -0.13937698 0.30274123 0.87363607 -0.07768003 -0.604407 0.3223498 0.42718208 -0.23158646 -0.03943965 -0.30949435 -0.12167128 -0.20930173 -0.2862827 0.583803 0.17368525 -0.13935739 0.12110341 0.26050588 -0.11184219 -0.59198254 -0.22468907 -0.18508391 -0.15008432 -0.65381926 -0.06257315 -0.44356123 0.27532524 -0.005616443 0.47570345 -0.25790775 0.32149383 -0.17255266 -0.6386855 0.06130299 0.65938115 -0.15498632 0.3967715 0.8216479 0.05289181 0.49455038 -0.15788588 0.3427987 0.52546835 0.272117 0.39334044 -0.09213456 0.10693275
259 0.3788871 -0.06277034 -0.16218534 0.015655432 0.19422898 0.0325621 -0.03543995 -0.44392243 0.1624554 -0.1669471 -0.20950775 0.09494504 -0.25105602 -0.15850551 -0.022048654 0.13334684 0.35552946 -0.15478149 0.07610919 0.19293441 -0.40091193 0.0794222 -0.21532129 0.05148609 -0.08245703 0.118238986 -0.6601355 0.216312 -0.15099567 -0.26931033 -0.020352904 0.3491208 0.21904545 0.10041226 0.16445306 -0.24451253 -0.210572 0.055772413 -0.33687174 0.4352074 0.39363602 -0.22608556 0.29581958 -0.06617118 0.36491308 0.32168236 0.51931846 0.03913212 -0.42545658 -0.20296578
342 0.6688781 -0.377926 -0.045574363 0.025292007 0.4146598 0.6702628 -0.15166298 -0.36486915 0.45392582 -0.20253322 -0.16197912 0.0037555199 -0.78222287 -0.13278039 -0.3345744 -0.27520493 0.5828755 -0.027788533 -0.12852186 0.11985841 0.0066672643 0.5657436 -0.033115048 -0.20106108 0.20037195 0.12109007 -0.17433323 0.5225797 -0.51150095 0.3353453 -0.06372847 0.6866252 0.5277118 0.39219856 -0.07559203 0.19303997 -0.21514818 0.21551514 -0.30106908 0.21265317 0.11773965 0.22996283 0.42325914 -0.13623126 0.23810978 0.16841118 0.0630033 0.12599105 -0.23515965 -0.6099343
357 -0.2703371 -0.2148229 -0.14725815 -0.14637369 0.102343135 0.59137535 0.25786474 -0.4150874 -0.03777398 0.040418103 -0.24346067 0.20672692 -0.12230093 -0.12518464 -0.1298752 -0.48707423 0.3107267 0.072541974 -0.003692294 0.15715271 -0.030289972 -0.090218976 -0.47441122 0.3644545 -0.44716173 0.34963647 -0.478091 -0.119151674 -0.337307 -0.47843516 -0.2173398 0.4725638 -0.41372356 0.224376 0.04906345 -0.4584057 0.12535745 0.15717666 -0.5392802 0.044474278 0.4211992 0.22302975 0.23602474 -0.21957219 -0.020049779 0.5088947 -0.20422707 0.71252894 -0.41144732 -0.26444745
2668 0.7137532 0.14062828 0.106211044 -0.24986906 0.19342218 0.73017955 -0.042448223 -0.55570596 0.119989164 0.31887 -0.4682754 0.39367306 -0.40775937 -0.109585926 -0.39843738 -0.35413843 0.49990723 0.2041359 -0.2779603 0.40005854 0.080352426 0.21398368 -0.6282053 -0.14759299 -0.10176119 0.11839166 -0.7476812 0.07813396 0.061901014 -0.038133267 -0.1332658 0.3652903 -0.20154685 0.1481919 -0.0005893223 -0.25532433 -0.0069220145 0.54484385 -0.16384801 0.34588778 0.6242351 0.11697508 0.46340206 -0.048142534 0.081619814 0.49727988 0.0433372 0.33847192 -0.11280266 -0.081317596
159 0.49450654 -0.5916699 -0.03764158 -0.21293077 0.36368465 0.32131413 0.26190647 -0.3387612 0.511593 -0.4569177 -0.26505443 0.76655537 -0.53870004 0.13800766 -0.4684602 -0.377578 0.14678013 -0.16535082 0.04364713 0.3277376 -0.5236654 0.72417176 -0.1898869 -0.1885322 0.07323944 0.26950565 -0.4107757 0.43111786 -0.15819806 0.22579621 -0.5297507 0.46463323 0.0656999 0.050989337 -0.29150495 0.091956 -0.09882571 -0.06429922 -0.57864535 0.2714105 0.24509713 -0.10953089 0.23697317 -0.4214965 -0.051321555 0.4330833 -0.21135563 0.38005385 -0.6191441 -0.3867857
196 -0.14445885 -0.048094403 0.113288835 -0.21686086 0.10592761 0.70945424 0.18400544 -0.55314934 0.19015157 0.25206423 -0.02306217 -0.048713196 -0.2252885 -0.1514636 -0.02929546 -0.3977193 0.58140624 -0.09393361 -0.045510776 0.02602286 0.20651792 -0.6390621 -0.22937734 -0.046481997 0.03010409 0.10908566 -0.7700749 0.03810242 -0.17963964 -0.20824552 -0.10861951 0.2587163 -0.4250647 0.20691745 0.12536196 -0.83943444 0.1623078 0.595419 -0.37533987 -0.010179198 0.65983105 -0.004217073 0.4668034 -0.056248996 0.038890038 0.63839674 0.06992183 0.38048264 -0.43648866 -0.111240104
143 0.47444665 -0.2120178 -0.11791734 -0.039866116 0.11422868 0.011065723 -0.32905698 -0.022058666 0.100671425 -0.63876873 -0.09529807 0.33571836 -0.022104094 -0.09577883 0.14677568 -0.020835126 0.26229125 -0.18811895 -0.3102579 0.24453035 -0.18284692 0.07758156 -0.24708521 0.2243098 -0.37407556 0.3459874 -0.67131805 0.42261586 -0.019230226 -0.19397162 -0.3642813 0.5960249 0.2564088 0.24651138 0.3982948 0.047539324 -0.55226964 0.051423162 -0.5746235 0.44748837 0.2167492 0.060071345 0.011277139 -0.5797115 0.05178257 0.35648218 0.26069927 0.47402266 -0.20642295 -0.3288769
2664 0.46308494 -0.24799773 -0.03934815 -0.42772895 0.09442027 0.57307124 0.07851333 -0.22965603 0.13009878 -0.027107785 -0.35960403 0.60073376 -0.5163163 0.1139941 -0.35566062 -0.8202577 0.34513846 0.13861728 -0.10040292 0.6023826 -0.2070768 0.55191433 -0.43601504 -0.027852125 -0.20642704 0.19379821 -0.5904507 0.08456655 0.02478207 -0.14400353 -0.25699857 0.75021863 -0.26214612 0.097689204 -0.10700147 -0.032243147 0.044167828 0.32908812 -0.47848603 0.42432016 0.5956034 -0.04825849 0.13732688 -0.017345969 -0.060894284 0.51409686 0.22664218 0.5016751 -0.4462141 -0.41125503
59 0.4133462 -0.32165614 -0.180567 -0.23481981 0.52995867 0.10554869 0.25778413 -0.20461263 0.27812293 -0.3716385 -0.3315581 0.605222 -0.36556682 0.2198639 -0.311101 -0.26892045 0.32115304 -0.098565444 -0.22519413 0.44998658 -0.26221025 0.23384744 -0.18209945 -0.2402218 -0.033064056 0.4286432 -0.31057996 0.42122698 -0.18479685 -0.06500591 -0.3882369 0.5912665 0.31924155 0.07670264 -0.23248482 -0.0329798 -0.36276034 -0.081920326 -0.5868095 0.19480792 0.20382184 0.07912257 0.29675627 -0.42343962 0.15693966 0.25422138 0.23196343 0.055890862 -0.13632055 -0.5804414
325 -0.12594865 -0.30026975 -0.021193549 0.01316659 0.14746846 0.39619467 -0.042188466 -0.38853535 -0.009085074 -0.37295252 -0.07028525 -0.06519669 -0.29225904 -0.4001716 0.28542247 -0.80157405 0.31463617 -0.050209362 -0.1925541 0.05536924 -0.16767946 -0.02921525 0.004847853 -0.1909472 -0.17379193 0.4664941 -0.41669363 0.40017408 0.09367725 -0.30303732 -0.31252977 0.5536318 0.11975345 0.84060633 -0.063058324 -0.33278054 -0.25641525 0.4801709 -0.31711194 0.07956385 0.12799922 0.10626041 -0.2008308 -0.11135221 -0.26018915 0.63354367 0.615965 0.36026344 -0.018799912 -0.2655652
113 0.3650516 -0.0011409156 0.14517468 -0.14950274 0.39567852 0.61885124 -0.12192297 -0.104895495 0.2559993 -0.17840986 0.19373214 -0.0018562952 -0.1903313 0.24325906 -0.20059206 -0.28425342 0.20529 0.21432431 0.026594512 0.57468754 -0.27657536 0.20807073 -0.30458453 -0.12453613 -0.29286847 0.056238633 -0.42063174 0.23592241 -0.05381712 -0.1965608 -0.07452883 0.48012453 0.08779463 0.27641198 0.13042855 -0.16809754 -0.21767811 0.10997859 -0.46495047 0.43178192 0.3135827 0.09840199 -0.21730684 -0.12118187 0.028672945 0.32806197 0.03760027 0.26730177 -0.14875181 -0.3837003
82 0.21939495 -0.010357665 0.16265076 -0.031574503 0.47999796 0.7367113 -0.07782827 -0.09869073 0.20500873 -0.060333554 0.31511986 -0.3019275 -0.14639552 0.00287355 -0.15295522 -0.1851662 -0.14473312 0.34129974 0.015570261 0.23014191 -0.22155719 0.05431101 -0.40052703 -0.020200463 -0.13186452 0.10458027 -0.44734406 -0.053309392 -0.16277559 -0.37300575 -0.037537396 0.3899278 0.087265566 0.39544946 0.04331328 -0.47037068 -0.0675643 0.14585334 -0.19852442 0.32575586 -0.02339051 0.2604144 0.23232107 0.044089608 0.046058256 0.49764127 0.15517631 0.21234223 -0.3641565 -0.5410138
345 0.41300434 -0.2443119 0.021345098 -0.3033111 0.06905166 0.30865186 -0.12813517 0.1723788 0.32429042 -0.33916155 -0.12983592 0.43653378 -0.19031262 0.06651278 -0.08456166 -0.5907502 0.14231144 -0.17845425 -0.38116392 0.47438452 -0.27631012 0.46027005 -0.20493641 0.0016916577 -0.3767803 0.29510453 -0.56096643 0.4176986 -0.003464044 0.059000835 -0.48010767 0.6998887 -0.08878891 0.1873166 0.031099156 -0.03634952 -0.039178055 0.11557094 -0.51776266 0.39188924 0.47731698 -0.048272174 -0.23635651 -0.25142518 -0.14500296 0.4386744 0.10346969 0.65480155 -0.3626569 -0.32257396
2554 0.27255157 -0.3610023 -0.08888513 0.0068841055 0.2104319 0.6747407 0.086527035 -0.17864856 0.44662264 -0.22997272 -0.12618284 -0.12738645 -0.5089691 -0.21951061 -0.25112686 -0.20382132 0.41078237 -0.025627185 0.03726192 0.0035672227 -0.11249607 0.32248735 -0.13956627 -0.010471548 0.35865444 0.070189625 -0.17896116 0.29358727 -0.4216758 0.11883739 -0.11454681 0.32345113 0.24321163 0.33864176 -0.21371117 0.038667273 -0.12596546 0.12122104 -0.4003525 0.056080576 -0.08209046 0.26741534 0.32975653 -0.2108455 0.181282 0.39042094 -0.25527015 0.412362 -0.31989977 -0.4178754
846 0.269985 -0.6939226 -0.23290679 -0.12355612 0.40593192 0.49506024 0.02802571 -0.4167552 0.36767548 -0.10131795 -0.15515433 0.32880872 -0.42781964 -0.01712705 -0.3578567 -0.35271376 0.29037178 -0.107284985 -0.20304434 -0.11849581 -0.39876813 0.22346003 -0.3613865 0.06863278 0.20934224 0.46809676 -0.10715151 -0.07635215 -0.6497509 0.13500893 -0.07603672 0.8359061 0.20323116 0.08957429 -0.100775294 -0.15902112 -0.090899885 -0.0062891776 -0.5882379 0.0037161643 0.24721415 -0.19524817 0.23335955 -0.33272567 0.28908116 0.29301214 -0.09608273 0.25297996 -0.65903157 -0.22600503
568 0.1810345 -0.17637666 -0.25603193 -0.24243686 0.12632464 0.45666194 0.24347378 -0.388807 0.090940125 -0.040541824 -0.3110993 0.29612726 -0.50678754 -0.16013552 -0.20624518 -0.37798107 0.43215045 -0.03513777 -0.088202395 0.3249271 0.05388347 -0.15645958 -0.27262157 -0.01437407 0.16971695 0.48612607 -0.53203475 0.13139635 -0.092671275 -0.18943737 -0.27316803 0.37351406 -0.108530656 0.082165636 -0.1470417 -0.23907891 -0.080115765 0.3756345 -0.43239102 0.19212303 0.3867332 0.058139607 0.52160263 -0.1496642 0.06544517 0.34105885 -0.116012335 0.39126322 -0.31689277 -0.13450153
107 0.13672243 -0.22660312 -0.129351 0.13274245 0.10825594 0.11343647 -0.08129793 -0.34400022 -0.20035253 -0.27911538 0.042275958 0.17891487 -0.07918916 -0.11039216 0.16675341 -0.21087094 0.5020062 -0.16960993 -0.041145224 0.026961781 -0.29602396 -0.38353506 -0.2640921 0.019041652 -0.08831254 0.21136975 -0.72848415 0.24943008 -0.07438148 -0.32177114 -0.10443728 0.41572124 0.04853514 0.19181469 0.24868505 -0.519793 -0.49175572 0.3779052 -0.4918568 0.16603123 0.4429392 -0.15927303 0.33207384 -0.06985442 0.10734733 0.4141877 0.31907475 0.32589602 -0.22412495 -0.20111793
2297 0.0048330855 -0.06370257 0.22095907 0.35604456 0.54805374 0.58548707 0.23912564 -0.17882152 0.15076539 -0.17276745 0.3254773 -0.5082123 0.2407811 0.033993553 -0.030138958 0.19727077 0.39305097 0.07304887 -0.2894684 -0.34015077 -0.077869266 -0.08959145 -0.3385694 0.39674082 -0.40830994 -0.098843426 -0.63432175 0.40704945 -0.082748204 -0.42691588 -0.08198804 0.09895248 0.12665041 0.49090788 -0.11270654 -0.7675011 -0.45956647 0.34967378 0.08453748 -0.018340558 0.11094666 0.30142146 0.3331502 -0.06889905 0.20739588 0.5549131 -0.3822172 0.2253404 -0.09470461 -0.7245535
2562 0.21535338 -0.22018293 -0.27247146 0.05409433 0.31460276 0.5998995 0.3053779 -0.05132139 0.30224892 -0.3009969 -0.08800523 0.08129373 -0.50207216 -0.294441 -0.4618003 -0.026353212 0.1988193 -0.11188487 -0.024948644 0.10389306 -0.09232492 0.17275584 -0.14052476 0.0057590804 0.282052 0.2914519 -0.19762607 0.38282192 -0.13463177 -0.051260877 -0.14940865 0.39876086 0.18521461 0.07410316 -0.40126035 0.1427547 -0.106593974 0.08857752 -0.4223876 0.20054366 -0.05428017 0.2797638 0.46860668 -0.2652434 0.15590549 0.4582517 -0.3893213 0.29554325 -0.40282106 -0.40481684
148 0.1930808 -0.021709263 -0.1951993 -0.29533538 -0.081499405 0.50268936 0.044449788 -0.55064297 0.14359197 0.14434317 -0.4143547 0.111659326 -0.14917438 -0.2365659 0.11105834 -0.46856034 0.35370067 -0.14578235 0.09006058 0.23551764 -0.30326942 -0.02692661 -0.4756992 0.18570252 -0.045099966 0.34552366 -0.62881523 0.1618725 -0.2613808 -0.35890797 -0.088301845 0.36061198 -0.15254001 0.12193331 -0.028533453 -0.4312418 0.1452017 0.36051378 -0.46083397 0.09610884 0.52969927 -0.0062410133 0.22309667 -0.1001662 0.09278806 0.39271447 0.32021567 0.39068013 -0.6187779 -0.02790862
112 0.43357387 -0.2407222 0.050739147 -0.39131668 0.10697425 0.48022974 0.040880702 -0.27618715 0.36356035 -0.0969096 -0.0283334 0.27323863 -0.4617095 -0.13537855 -0.12758511 -0.52721214 0.25954327 -0.22453152 0.119696006 0.08148882 -0.19415608 0.095212735 -0.19052677 -0.011144523 -0.08421356 0.003344506 -0.3719654 0.13577372 -0.20520563 0.1887816 -0.27845165 0.49337646 -0.087993264 0.14214112 -0.1261148 -0.22447181 -0.016866442 0.51203305 -0.27229232 0.23207875 0.20715484 -0.005390559 0.17622988 -0.28515172 0.106317334 0.60776216 0.13745996 0.6968684 -0.42676723 -0.030550756
2586 -0.08840994 0.016528353 0.22259721 0.39724872 0.56833446 0.35035598 0.06511664 -0.20224422 0.35578352 -0.3732822 0.32475212 -0.32089084 0.22609591 -0.20601673 -0.09194841 0.5045452 0.25703907 0.15884477 -0.20520933 -0.3375495 -0.04446917 -0.40858477 -0.3878198 0.24396227 -0.36914217 -0.0739171 -0.6485968 0.025933238 -0.1456827 -0.3722755 -0.17701906 0.17499143 -0.028454822 0.38467342 -0.40254325 -0.78009576 -0.3025858 -0.026416054 0.06684273 0.12080957 0.12120758 0.10743906 0.24368711 -0.32023168 0.47948924 0.6731412 -0.4469303 0.31262192 -0.2589119 -0.4374414
198 -0.110243626 0.114851154 0.24913105 -0.16635725 0.0025078221 0.87166744 -0.23543854 -0.38634497 0.40017366 -0.2576661 -0.054505404 0.048319 -0.31997886 -0.16645776 0.13306221 0.024869844 0.13443881 -0.13188122 0.024728257 -0.026247228 -0.3329628 0.24857746 0.23329446 0.37843215 0.0373697 0.15508735 -0.41763958 0.34499758 -0.054478902 0.013219654 -0.43517822 0.42220387 0.004036653 0.5537017 0.28758565 -0.8178509 -0.34602278 -0.18996924 -0.2701246 0.25930008 -0.055720918 0.5176627 0.23864459 -0.33984253 -0.11580719 0.5225385 0.19354054 0.25601798 0.022179557 -0.78999543
33 0.015701467 -0.030219302 0.045467384 0.013607671 0.37582773 0.60804635 0.038083028 -0.20206717 0.31719097 -0.17866834 0.18715172 -0.16424231 -0.16714567 0.16417576 -0.3215238 -0.09918515 0.44234356 0.2934111 0.030648936 0.3212974 -0.31157947 -0.12563486 -0.07232247 -0.11197274 -0.013273038 -0.1476326 -0.3487021 0.15024304 -0.057563797 -0.16916703 0.021401893 0.33556408 0.16153023 0.11365915 0.022316763 -0.42297256 -0.2862635 0.034327634 -0.49251264 0.19005607 0.31569365 -0.074039236 -0.16404366 -0.09009935 0.18700594 0.44455412 -0.0607543 0.36426643 -0.054669384 -0.33560124
14 -0.062830895 -0.009189621 0.27028915 0.07597285 0.38339373 0.46649274 0.12512928 -0.14294894 0.25485384 -0.22051987 0.17515436 -0.37031057 0.21826279 0.053901374 0.06891407 0.050852563 0.29137692 0.027734386 -0.1630104 -0.02195043 -0.20669848 0.05883461 -0.17618084 0.29909244 -0.388618 0.04222187 -0.5625395 0.4922708 -0.11071912 -0.36822522 -0.2496844 0.09443056 0.15592626 0.5761276 0.029206907 -0.69676894 -0.40335426 0.24230558 -0.16532314 -0.035380416 0.18474941 0.21300808 0.04840795 -0.01882436 0.14491297 0.40397766 -0.10039699 0.08304151 -0.0794314 -0.74426806
1355 -0.15182906 -0.17594555 0.20353572 0.28941408 0.4625514 0.31611922 0.25364605 -0.29925403 -0.020848928 -0.14836414 0.16894236 -0.4415973 0.20780987 0.14854878 -0.025183005 -0.057800863 0.38341805 0.19735754 -0.024923583 -0.19297424 -0.019936796 0.073492706 -0.29247418 0.40774778 -0.20778766 0.12299466 -0.51026285 0.6211114 -0.3413872 -0.27809212 -0.25672716 0.10895371 0.21818784 0.34039286 -0.02317259 -0.5647586 -0.46788105 0.092793934 -0.2875431 0.04005157 0.049000956 0.0012750357 0.17392437 -0.20912068 0.2587824 0.38362512 0.0096600875 0.2925862 -0.042515688 -0.6865496
2640 0.09898436 -0.06805424 0.075919636 -0.0022278284 -0.038892217 0.6053911 -0.18516028 -0.26086825 0.21673411 -0.29643863 -0.07963782 -0.0067971474 -0.4730355 -0.258056 -0.014397859 -0.13584988 0.47239825 0.008320865 0.035264898 0.12714413 -0.41218665 -0.005057972 0.029025964 0.14545263 0.24239068 0.031584203 -0.5878256 0.39590937 0.14278223 -0.16860245 -0.31754825 0.30829468 -0.16281123 0.4331112 0.09162202 -0.8504451 -0.27605847 0.19213797 -0.23116224 -0.03786697 -0.09386247 0.30486 0.26458168 -0.0714444 -0.17046559 0.5334748 0.05565409 -0.04497509 -0.08999415 -0.7316402
114 0.7219457 0.058002148 -0.07763429 -0.5667435 0.4400704 0.12790109 -0.012569295 -0.4962517 -0.06933912 -0.5726359 0.23468314 0.40106207 -0.074159786 -0.66963285 0.10012135 0.04715756 0.20973097 -0.3192675 0.09131054 -0.045090728 0.034802105 -0.0309421 -0.39013433 -0.26293555 -0.044015884 0.6070601 -0.4568613 0.29746163 -0.44473335 -0.58308333 -0.15136607 0.7835938 0.47191036 0.7215831 -0.43423757 0.037576526 -0.031316053 0.18230283 -0.31912184 0.5601356 -0.004044468 0.45271626 -0.13161258 0.029431798 0.31422755 0.8070426 0.7556381 0.006076001 -0.56443095 -0.27977094
201 0.3214102 -0.10195492 0.059322014 -0.11728043 0.20638612 0.6019435 -0.31106752 -0.21729594 0.07880321 -0.41256824 -0.2588992 0.3175747 -0.06952495 -0.1070409 -0.03535867 -0.18647382 0.20539816 -0.0538722 -0.32363904 0.12541002 -0.17161296 0.46921864 0.023539538 0.117936715 -0.13237444 0.25554547 -0.27077335 0.50411147 -0.34587213 0.1258579 -0.32395035 0.5656452 0.5048101 0.3157484 0.16231446 0.06693044 -0.4215782 -0.07978007 -0.62850434 0.40891606 -0.055111013 0.44697446 0.14923449 -0.47629213 0.044844054 0.30158916 0.26028258 0.23535259 -0.042242367 -0.669875
199 0.4090873 0.102841996 0.17717122 -0.16943598 0.07161227 0.7081519 -0.009114742 -0.41132304 0.23876728 0.22719085 -0.10059293 0.0571253 -0.48479247 -0.09023133 -0.18834615 -0.31297714 0.53299963 0.098735206 -0.015662862 0.11650929 -0.05545439 -0.20726387 -0.23416254 -0.039091177 0.12253937 -0.27636608 -0.80971146 0.033756383 0.067978375 -0.008448792 0.076100275 0.34880173 -0.24179113 0.20659465 0.070480146 -0.7499033 -0.048819263 0.73700714 -0.14716218 0.20301467 0.32191077 0.23297699 0.52984387 0.023632422 -0.020678714 0.71827936 0.105288915 0.17012434 -0.18270102 -0.32945612
118 0.37385947 -0.2526434 -0.027273566 0.051407102 0.34652746 0.54965305 0.12735505 -0.25091815 0.3869382 -0.08990024 -0.19226961 0.11857294 -0.21566959 0.3012949 -0.2460493 -0.17224258 0.54382354 0.36394235 0.028257435 0.515107 -0.3051535 0.0652483 -0.063505195 -0.1316072 -0.07256882 -0.2211854 -0.3307733 0.3139673 -0.057303958 -0.14213158 -0.06224956 0.45049036 0.29194084 0.07800085 0.25466284 -0.16009335 -0.41371435 0.2846955 -0.6872425 0.14497 0.4668605 -0.07640624 -0.095896654 -0.19718987 0.19548123 0.29709777 -0.25559226 0.3298188 -0.04878239 -0.34826812
2556 0.33053887 -0.31568035 -0.14724252 0.041293748 0.47966638 -0.016341668 0.11358103 -0.3284081 0.038405336 -0.33063886 -0.17417106 0.39393994 -0.17536308 0.12633666 -0.20530535 0.024141345 0.48878592 -0.013665999 -0.19863704 0.2566753 -0.27042046 -0.13832891 -0.14758083 -0.15686668 0.028777577 0.13421834 -0.5257607 0.3753504 -0.06996151 -0.20491716 -0.22697431 0.36205754 0.41145873 0.019185737 0.023396637 -0.17791489 -0.53432775 -0.054965053 -0.64138883 0.11393008 0.24088147 -0.007620255 0.43136126 -0.3557509 0.31419188 0.26123723 0.1201869 0.03224329 -0.03195869 -0.4064339
308 0.29777104 -0.33918056 -0.049479067 -0.17098069 0.41942897 0.30383906 0.15590751 -0.19611245 0.43772593 -0.34095603 -0.15925491 0.35191295 -0.42937145 0.14629625 -0.26033947 -0.2181456 0.23788255 -0.05497083 -0.16783522 0.27447993 -0.260197 0.3445607 -0.13939121 -0.15895945 0.046512745 0.25842708 -0.26118907 0.30134857 -0.26231882 0.004887164 -0.21295056 0.5794066 0.161908 0.18234247 -0.13163932 -0.23753832 -0.1007519 -0.039789136 -0.44228873 0.14000294 0.17151345 -0.09281127 0.18377602 -0.14453125 0.04666126 0.24769078 0.10165649 0.051511403 -0.30730602 -0.38103992
2585 0.49383777 -0.2649653 -0.040348295 -0.09643291 0.27979258 0.65063787 -0.07512843 -0.24347353 0.16147944 -0.24505539 -0.33437014 0.15009287 -0.39806348 -0.14252847 -0.12118952 -0.3871888 0.56078786 -0.07445879 -0.21907163 0.205822 -0.06717089 0.44522873 -0.08542581 -0.0741734 0.13802545 0.25265267 -0.1977706 0.5197993 -0.32306653 0.07117321 -0.18495901 0.5825907 0.51032907 0.3625551 -0.04763813 0.21738222 -0.3052511 0.32993048 -0.46734554 0.24603908 0.0140332775 0.46016374 0.2725039 -0.31611705 0.07720713 0.29672757 0.05446122 0.1689979 -0.070952676 -0.6439254
770 0.44461542 -0.5464053 -0.10915946 0.28330564 0.69849646 0.37307647 0.14219983 -0.3304766 0.05555324 -0.3636908 -0.48219472 0.5055139 0.013885064 -0.032352902 -0.33939135 -0.00040306486 0.36082798 0.12168562 -0.37268108 0.12458583 -0.43295866 0.21165358 -0.39754206 -0.3311837 0.02741235 0.18605392 -0.08416446 0.3477559 -0.52034825 0.013654445 -0.29222435 0.37982753 0.67520154 0.12387965 -0.17613062 0.072314784 -0.3700286 -0.05094937 -0.74990314 0.05757437 0.054654088 0.21928754 0.4124457 -0.6322924 0.08534396 0.3369133 -0.09914532 -0.15840116 -0.21515332 -0.59072125
992 -0.119482696 0.040035583 0.24222136 0.10309366 0.54928124 0.6266365 -0.19140476 -0.21146217 0.1922218 -0.5152435 -0.04107451 0.28151911 0.14743692 -0.10431438 -0.174007 -0.20760149 0.16966073 0.13454267 -0.06134575 0.29570413 -0.36236122 -0.0902905 -0.0332947 0.18280257 -0.42229256 0.38987103 -0.094156854 0.5204015 -0.039551172 -0.12028163 -0.21940164 -0.067985095 0.07888871 0.41082084 0.23812602 -0.5292301 -0.0066204653 -0.38091972 -0.66974914 0.09914719 -0.11805803 0.033594694 0.043560207 -0.15283418 0.57680947 0.47694948 0.33801803 0.40462303 0.1311986 -0.17148066
965 0.326329 0.12964602 -0.056096584 0.09491187 0.06105819 0.5232686 -0.036178913 -0.43406573 0.39239115 -0.04302026 -0.34117866 -0.17114414 -0.34111255 -0.5329433 0.13227518 0.3067207 -0.036992032 0.1076431 0.031477563 0.31752375 -0.31563544 0.21030922 -0.50947875 0.21784805 -0.09037052 0.3004655 -0.3723888 0.1278739 -0.20601973 -0.3481486 -0.020713633 -0.040624827 0.09347825 0.21793513 -0.1044492 -0.57673746 0.3795832 -0.03076449 -0.38189906 0.28942785 0.1900778 -0.03777181 0.23867661 -0.064110525 0.28135648 0.6141789 0.37284327 0.41143042 -0.39813697 0.033123173
730 -0.10095191 0.08705905 -0.19118813 0.39987326 0.5307928 1.070144 0.5053327 -0.19258524 0.46448967 -0.2482963 0.21869436 -0.31139812 -0.3196781 -0.3519117 -0.22469404 -0.021816567 -0.30886334 0.1932522 -0.06908304 0.2605869 -0.0012522362 0.016664496 -0.076261185 0.052438438 0.38377166 -0.21335329 -0.21734457 0.15076429 -0.080149055 -0.14148667 -0.23655325 0.6211076 0.19981837 -0.22456789 0.23631759 -0.3755677 0.14998129 -0.057671953 -0.79477096 0.32736734 0.5579274 0.17833725 0.60175455 0.39130375 0.04732821 0.45649746 0.47469902 0.28620282 -0.14861408 -0.4428799
109 0.042812996 -0.1879492 -0.010954211 -0.16693653 -0.03310449 0.3935621 -0.075030595 -0.35900646 0.007794368 -0.045330655 -0.17006645 0.018115137 -0.20838745 -0.17046934 0.2132898 -0.73378175 0.3999075 -0.24046744 -0.06618419 0.08972161 -0.15663347 -0.28546095 -0.23137854 -0.0074526444 -0.009115036 0.2872795 -0.5598664 0.2874383 -0.20998023 -0.16580056 -0.20068514 0.54267305 -0.08933736 0.31749108 0.048159312 -0.50878537 -0.061601937 0.59282374 -0.47514185 0.045239784 0.43182325 0.04264817 0.0308486 -0.13288529 -0.13206251 0.60989434 0.3622117 0.5671693 -0.3065434 -0.11797311
165 -0.15000248 -0.07183982 0.24684845 0.06113099 0.56092834 0.5367109 0.061433595 -0.11973208 0.3411639 -0.3113615 0.20030619 -0.45480403 0.34709394 -0.03305654 0.15917465 0.06984158 0.11045901 0.10591294 -0.19465563 0.014043247 -0.13351937 0.06543426 -0.16784313 0.20294552 -0.4054494 0.06429209 -0.5116456 0.4206035 -0.13754058 -0.503462 -0.278805 0.07678122 0.14739424 0.535095 0.032382246 -0.6374878 -0.41404122 0.14741236 -0.06975303 -0.010876063 0.1395483 0.15225966 0.0761115 0.002851996 0.28326595 0.34949017 -0.027460154 0.14121851 -0.120136745 -0.6687623
46 -0.100958474 -0.16054411 -0.06127893 0.2839892 0.3277917 0.627588 0.2081333 -0.14262626 0.36208832 -0.46100712 0.2678665 -0.33343232 0.047054052 -0.25270775 -0.3746767 0.40526628 0.034841765 0.1327326 0.038320456 -0.054435514 -0.22201683 -0.30350804 -0.22909628 -0.013571547 0.1004969 -0.010519373 -0.42189825 0.003968026 -0.34039637 -0.17923349 -0.13708405 -0.034356892 0.136754 0.1115868 -0.38348287 -0.48447207 -0.14691783 -0.16016853 -0.5309001 0.08960631 0.006721786 0.14046116 0.1738765 -0.29140437 0.3408306 0.64163864 -0.3475935 0.4372509 -0.41890043 -0.3085278
130 -0.2049487 -0.15742376 0.16483738 -0.049226124 0.715098 0.74685746 -0.15888755 -0.16988586 0.22606565 -0.65746367 0.35316685 -0.38938752 0.3366007 -0.08157979 0.22267024 0.010275542 -0.070348375 0.2442245 -0.060421605 0.13913637 0.055276103 0.05801862 -0.32268557 0.16611695 -0.18942812 0.051130917 -0.6111566 0.37492177 -0.22970958 -0.81158423 -0.23560129 0.25306043 0.14055409 0.30946448 -0.035019595 -0.43853742 -0.15784238 -0.034608483 0.024386993 0.13604999 0.009258723 -0.026929528 0.22858445 0.029732995 0.4173912 0.42656028 0.33799818 0.093712196 -0.1615794 -0.518166
1462 -0.15251498 -0.14137433 0.16454399 0.45304078 0.58365214 0.48648483 0.20837405 -0.15593779 0.24673843 -0.46211076 0.34436244 -0.33941713 0.3573962 -0.10282729 -0.06444394 0.40830943 0.29908517 0.05800384 -0.30168447 -0.35873893 -0.22773317 -0.2364215 -0.35293385 0.34352288 -0.4994111 0.014284562 -0.7492379 0.06230745 -0.04463703 -0.65211654 -0.17063372 0.073708534 -0.0067453794 0.49200165 -0.20011203 -0.8293838 -0.2788643 0.0010164195 0.016492212 -0.10044016 0.09613664 0.18152758 0.3224418 -0.059794623 0.21986933 0.6306377 -0.5345585 0.2891643 -0.31693977 -0.55809575
57 0.55277294 -0.013932059 -0.07960095 0.026611077 0.2876148 0.2495176 -0.082498334 -0.43209055 0.06018243 -0.17971516 -0.11512204 0.27848944 -0.28268802 -0.2418449 0.081385575 0.12955573 0.27425054 0.020544784 -0.045716852 0.3155263 -0.15925092 0.19428416 -0.37805828 0.0024384204 -0.3143499 0.13648857 -0.5146393 0.21028209 0.1116699 -0.25642437 0.025944559 0.31220928 0.15508167 0.098525375 0.19723475 -0.18376604 -0.13930254 0.14291781 -0.32490206 0.4176432 0.31108502 -0.11207215 0.28331533 -0.15725502 0.2688414 0.4688845 0.5491602 0.19372697 -0.15849322 -0.17999814
72 0.37027395 -0.042453643 -0.05543232 -0.21502846 0.22986731 0.85122293 -0.07630262 -0.26910153 0.16134715 0.10966057 -0.3169268 -0.20094493 -0.2195994 -0.21766634 0.08090164 -0.34567404 0.3419213 0.10077509 -0.15214714 0.20047155 0.015920354 0.42510238 -0.37783104 0.22180013 -0.015218679 0.18299036 -0.53736514 0.25567868 -0.006581121 -0.51773995 0.07093239 0.38312146 0.16498432 0.32468525 0.03078027 0.016872004 -0.10643254 0.5359361 0.04329898 0.1552854 0.18906419 0.35088128 0.47784844 0.17946273 0.19154465 0.39591604 0.085767716 0.18595086 -0.32443818 -0.56435835
456 0.33542177 0.11765582 0.26265705 -0.13722783 0.3208288 0.655895 -0.02585777 -0.07096107 0.22093174 -0.038772937 0.09112906 0.096946456 -0.027871478 0.09784923 -0.30583465 -0.29016912 0.23171462 0.15923892 -0.19579442 0.4100091 -0.2560772 0.2383782 -0.21794914 -0.122706845 -0.28927943 0.03472525 -0.38153535 0.21993494 -0.07937585 -0.06433134 -0.072470576 0.38668957 -0.006443307 0.14237595 -0.019902803 -0.2215353 0.005516311 -0.08783919 -0.48158228 0.34158212 0.43986285 -0.007472744 -0.052052453 0.037644353 0.16065252 0.38390207 0.05759187 0.26857334 -0.08383799 -0.24790001
160 0.3889142 -0.19020268 -0.026375553 -0.17260374 0.060762353 0.40428928 0.013227384 -0.3723124 0.14107518 -0.076650634 -0.49089378 0.25376204 -0.39233816 -0.19916376 -0.11543018 -0.23026231 0.39111385 0.08527278 -0.13593258 0.26628247 -0.32724816 0.27022073 -0.3546653 0.05642811 0.14617714 0.18533422 -0.55648965 0.20178585 0.117945485 -0.35963142 -0.108468205 0.25767744 -0.022825621 0.18211034 -0.041944716 -0.25539386 0.008729021 0.40506843 -0.27803952 0.017442115 0.07886918 0.23062316 0.2015961 -0.008352146 -0.12898785 0.53676337 0.06031903 0.029115863 -0.35866204 -0.42095533
153 0.014655912 -0.17513822 0.21115088 -0.18667762 0.203974 0.2244371 -0.018826071 -0.2979836 0.2970747 -0.6371527 0.2877084 0.16611934 -0.29144034 -0.033476382 -0.05072988 0.16250782 0.6143568 0.14696167 -0.16248174 0.013635928 -0.19950487 0.17179643 -0.05377754 0.34081006 0.10300879 -0.05566663 -0.7371103 0.17898344 0.31919935 -0.4693126 -0.35639888 0.20495486 -0.14570716 -0.12996788 -0.26089078 -0.90391994 0.16183949 0.26512203 -0.27865332 0.24709442 -0.29003078 0.05345639 0.2577937 -0.18387567 0.10733118 0.6744712 -0.05209481 -0.20424734 -0.034350835 -0.64797
975 0.1917744 -0.015897302 -0.051356323 0.22198313 0.11554428 0.68195033 0.08620761 -0.16419354 0.35569644 -0.16695635 -0.06225148 -0.30627725 -0.29302418 -0.3900178 -0.3018411 0.36618984 -0.15687886 0.29135892 -0.004693452 0.15457243 -0.31257048 0.046916988 -0.38743022 0.049585573 0.16881394 0.1515226 -0.39435747 -0.10599454 -0.3420954 -0.20650223 0.048197545 0.012564895 0.117935844 0.23094364 -0.33242643 -0.607679 0.18377933 -0.0727401 -0.48478022 0.25941014 -0.08730066 0.20491514 0.42765388 -0.014293653 0.20584996 0.6163304 -0.009798729 0.34753048 -0.48132664 -0.1949339
743 0.014827409 -0.15172559 0.21451066 0.0065536266 0.6201197 0.47108534 -0.12953648 0.021484189 0.3389419 -0.5539572 0.19638059 -0.4237623 0.3908724 -0.25881737 -0.060067505 0.20180887 0.031708933 -0.0044518146 -0.11782722 -0.0763595 -0.20746092 0.0975725 -0.36456323 0.12225147 -0.18379547 0.27049714 -0.43302372 0.30587396 -0.047272347 -0.7933307 -0.29516277 0.12794797 0.08676351 0.27576354 -0.28729203 -0.45024216 -0.46705592 0.15404496 -0.019710595 0.17657696 -0.05167901 0.2764099 0.28276506 -0.2241998 0.19699489 0.46792555 -0.2553298 0.06957585 -0.4880587 -0.62240094
2576 0.45930392 -0.5545162 -0.07263975 -0.31740725 0.3014157 0.4955467 -0.07105956 -0.45313177 0.54222345 -0.15155803 -0.10924189 0.36005396 -0.54910755 0.13187572 -0.1352541 -0.32776982 0.26525155 -0.21940027 -0.09348182 0.13487987 -0.4316876 0.53451586 -0.2868979 0.0011752701 0.031815585 0.36829132 -0.35239282 0.08782784 -0.37636152 0.18011513 -0.02477449 0.7549507 0.16994825 0.21708424 0.0802919 -0.19230868 0.074916236 -0.07550156 -0.4745076 0.15610537 0.44891033 -0.3136723 0.20821416 0.009289038 0.25996408 0.18542694 0.16200255 0.30809483 -0.56581026 -0.14556889
1248 0.2096048 -0.07387195 0.18069927 0.041902743 0.094845995 0.51641583 -0.075972505 -0.14355096 0.24055722 -0.44689736 0.15141903 -0.10051475 -0.03568131 -0.16393071 -0.0031488312 0.10711496 0.22044154 0.15668936 -0.1630535 0.14403984 -0.129505 0.16905005 -0.06487086 0.038000528 0.13036208 0.0931388 -0.5596873 0.3985674 -0.09321735 -0.22481579 -0.29276383 0.30460182 -0.02357363 0.16241992 0.014284079 -0.5953464 -0.135825 -0.12875417 -0.34581423 0.23514602 0.051602487 -0.20002168 0.14158793 -0.14857504 0.13541394 0.29454473 0.1026282 0.095466465 -0.22759174 -0.22407445
55 0.46608403 -0.16482218 -0.10853475 0.21096091 0.3024374 -0.0025038149 0.017665466 -0.42677528 0.06834813 -0.36314762 0.023595985 0.12961625 -0.13996981 0.060014863 -0.29565752 0.40943763 0.2781287 -0.102601066 0.14736934 0.14271416 -0.25815725 -0.17981204 -0.09609543 -0.07515499 -0.047208544 0.07990473 -0.6395285 0.12865801 -0.0022308615 -0.3119373 0.16560067 0.43497467 0.21899909 -0.020279614 0.06273177 -0.39305073 -0.43646193 0.10745458 -0.5104959 0.45123634 0.23613888 -0.04972317 0.44091442 -0.1833396 0.3543607 0.5019022 0.1948235 0.06797845 -0.12271246 -0.29259285
786 0.40327403 -0.41076314 -0.13938458 0.11533991 0.44529226 0.111828744 0.108443394 -0.2970536 0.14252093 -0.3367236 -0.18977143 0.49735403 -0.31524715 0.07514829 -0.2153177 -0.060852498 0.33371836 -0.09795222 -0.070964515 0.24128006 -0.42605478 0.21246019 -0.19360639 -0.12873799 -0.011248431 0.24490383 -0.4793851 0.29911962 -0.06905943 -0.13948011 -0.21974498 0.38078475 0.29747263 0.05627752 -0.052825198 -0.088616565 -0.34692717 -0.021509249 -0.47886595 0.26437676 0.19735686 -0.095588855 0.3675291 -0.325397 0.13762303 0.35856664 0.14542662 0.014581434 -0.21107161 -0.44557393
2086 0.2668839 -0.24661785 0.03467451 -0.14117433 0.310702 0.43454567 -0.032413505 -0.42844892 0.37232882 -0.26198554 -0.006207465 0.21100768 -0.31067705 -0.119167656 0.10155571 0.050452694 0.09828359 -0.052565563 -0.12062374 0.2014877 -0.2895056 0.3563003 -0.21910186 0.083248265 -0.20141411 0.2821435 -0.31472987 0.24668412 -0.09444867 -0.07941528 -0.06985463 0.3190516 0.13647215 0.2282269 0.108841926 -0.2764692 0.11243505 -0.12676962 -0.31103775 0.22041258 0.3823588 -0.31299463 0.15964513 -0.019402225 0.262741 0.3270837 0.2779251 0.32446355 -0.33095506 -0.08508508
1059 0.06258765 -0.3938988 -0.042243753 -0.016911155 0.15325831 0.45342878 0.24385941 -0.096188925 0.32714957 -0.42085877 0.025316417 -0.041382212 -0.28323978 -0.24160637 -0.3328815 0.019747453 0.18091804 0.034875896 0.0080747 0.06583522 -0.25466326 -0.052941706 -0.28936806 -0.06343631 0.24832493 0.13478662 -0.37881535 -0.032833926 -0.3184559 -0.1291215 -0.17497951 0.1517824 -0.13214622 0.10053576 -0.37817538 -0.5263392 -0.024819251 0.076585904 -0.49952182 0.00073262677 -0.1478099 0.24154174 0.23792031 -0.21703526 0.00039800972 0.5214938 -0.24550202 0.22402544 -0.5212097 -0.31774506
312 0.285048 -0.21051179 0.09488082 0.09704776 0.29962078 0.35534662 -0.011807979 -0.48765263 0.20769274 -0.43624032 -0.0905934 0.109024905 -0.1122615 -0.088306665 -0.2757285 0.051221706 0.2617905 -0.13051341 -0.07221434 0.22547567 -0.24174327 0.15481253 -0.19078204 -0.15188843 0.07341514 0.25865388 -0.4684068 0.47036207 0.0587503 -0.21745415 -0.21003824 0.16287674 0.19930358 0.25150052 0.14928469 -0.29464605 -0.13685286 -0.014581832 -0.29706112 0.11924895 -0.042174987 -0.06916315 0.18405227 -0.21697636 -0.007065378 0.4102836 0.015641542 0.0662943 -0.27723008 -0.33268568
2561 0.19712494 -0.13060762 0.06574107 -0.0005904819 0.22940539 0.30827355 0.18688457 -0.3999498 0.15817055 -0.28396654 0.16654041 -0.053740673 0.048224702 -0.027741604 -0.03876186 -0.022423381 0.28174037 0.06303297 -0.30029088 0.096291736 -0.18830173 -0.08554152 -0.025334448 -0.049801424 -0.08409777 0.18181552 -0.54615754 0.3687171 -0.2165843 -0.15136836 0.011525315 0.23085718 0.15923569 0.12914453 -0.11058046 -0.4250944 -0.06931645 -0.12351068 -0.37873712 0.17693391 0.33072063 -0.17680569 0.16171311 -0.13262703 0.43710774 0.3483306 0.10939295 0.05920463 -0.19550827 -0.3010623
946 -0.19214165 -0.16652028 0.14153372 0.003745794 0.6126 0.7620031 -0.15170737 -0.2109137 0.20847294 -0.7095879 0.30845556 -0.3179554 0.1465122 -0.07009426 0.063193746 -0.0099547235 -0.036964677 0.19206432 -0.015500477 0.20625253 0.013927848 -0.049466033 -0.25791854 0.029722337 -0.04383806 0.017559644 -0.597797 0.43392068 -0.26323968 -0.65486604 -0.16791068 0.17130361 0.111628525 0.19605783 -0.05821398 -0.4056037 -0.043925963 0.008371932 -0.16783129 0.20977695 -0.0044198395 -0.12620522 0.24241464 -0.018170057 0.41761392 0.4022391 0.33104992 0.14417838 -0.06304865 -0.339914
732 -0.12817813 0.057008564 -0.090416506 0.34794107 0.56182295 0.91329914 0.3911898 -0.18043093 0.4478277 -0.37792075 0.24939908 -0.3271046 -0.14565717 -0.30318314 -0.14595048 0.10066986 -0.2236664 0.088556096 -0.0779026 0.19500163 -0.044837147 0.022585014 -0.062232718 0.03817114 0.24771929 -0.15863793 -0.20104034 0.18231507 -0.108723514 -0.18380512 -0.24850416 0.4774115 0.27608383 -0.13401672 0.22032107 -0.39995053 0.099178344 -0.16923518 -0.7035434 0.2906368 0.4700758 0.062898174 0.4696189 0.24510324 0.1207251 0.41532657 0.38369846 0.26463687 -0.09827521 -0.35135868
48 0.2530797 -0.15761395 0.030355597 -0.08267705 0.33109722 0.5677408 0.01950492 -0.21240872 0.32324144 -0.13336977 0.022654943 0.053054623 -0.17538257 0.32409647 -0.35103434 -0.2732251 0.5221301 0.23712237 -0.05759932 0.62278783 -0.44195816 0.14969622 -0.14603801 -0.13448888 -0.1229793 -0.15088919 -0.44475138 0.25622395 0.015237345 -0.25391492 -0.06341165 0.440573 0.17438826 0.0075628385 0.17200992 -0.37263137 -0.28834948 0.042213336 -0.5479392 0.25837493 0.604158 -0.15928759 -0.21896075 -0.008307975 0.09378778 0.34154153 -0.13149591 0.321105 -0.0050993618 -0.30542582
1463 -0.09884917 -0.16507721 0.16903418 0.49659055 0.5663261 0.61480147 0.3481725 -0.23177375 0.2174957 -0.47110286 0.40155262 -0.32481614 0.43730617 0.04011865 -0.08766296 0.41313148 0.27963686 0.022870619 -0.36916512 -0.3466267 -0.35529575 -0.07930757 -0.29310033 0.27727434 -0.60749304 -0.062484253 -0.8121933 0.07683706 -0.040496934 -0.66769505 -0.13404644 0.018990805 0.07290174 0.5039679 0.026314348 -0.8525123 -0.2235526 -0.021125369 0.002542951 -0.18203056 0.115684904 0.19207996 0.36104035 0.11210284 0.12141173 0.54889023 -0.50050056 0.25615194 -0.27578306 -0.54005444
111 0.030455386 -0.076570936 0.050705396 -0.08025593 0.013594743 0.5198915 -0.074733146 -0.46149102 0.17451812 -0.04486152 -0.16165265 -0.19919156 -0.31459174 -0.37972668 0.23435321 -0.6512577 0.3576522 -0.17165542 -0.05349171 -0.052295014 -0.19479695 -0.23537876 -0.11134433 -0.07546157 0.028392633 0.20168339 -0.40658373 0.2579069 -0.1693524 -0.20938964 -0.09157486 0.44083723 0.05892079 0.5199341 -0.15129697 -0.58558726 0.116708905 0.5736103 -0.30515105 0.0133064585 0.22246766 0.105634384 -0.039608546 -0.092630595 -0.039576337 0.8192075 0.49677294 0.43498495 -0.2657801 -0.052167367
136 0.18846154 0.07666189 0.10795261 -0.057811253 0.33249906 0.38274086 -0.015489232 -0.13634802 0.1330984 -0.07415127 0.11830841 0.05524778 -0.015259786 -0.0685666 -0.32256415 -0.2921159 0.2699504 0.05095052 -0.32725668 0.17906359 -0.36306834 0.08065711 -0.1077731 -0.05264876 -0.13814925 0.17116962 -0.4313462 0.28065497 -0.019093467 -0.22115614 -0.2333046 0.20535414 -0.00067101617 0.069414765 -0.11135082 -0.38542265 -0.05080159 -0.11132993 -0.5077056 0.16833429 0.30721396 -0.09357537 0.013147669 0.09788002 0.17975749 0.4266585 0.09904977 0.29707974 -0.037465293 -0.29535997
1595 0.10548831 -0.11748894 0.16426688 0.15675262 0.32032505 0.33026817 -0.0034142556 -0.32689467 0.368947 -0.3556391 0.2234498 -0.1705513 -0.058216944 -0.10055703 -0.017083734 0.17423066 0.29404485 0.11618772 -0.24118516 -0.0077294162 -0.1791019 -0.08430336 -0.2073756 -0.09062988 -0.10558318 0.14719823 -0.3409867 0.2885594 -0.17453438 -0.17002214 -0.19465424 0.20183924 0.15506291 0.2437679 -0.2160473 -0.3628002 -0.014645 -0.026585868 -0.21664907 0.103329994 0.13203694 0.052640855 0.124898516 -0.08775472 0.34762564 0.5098188 0.041227542 0.27266634 -0.21762659 -0.28507027
1753 -0.118206374 0.0072183325 0.13370506 -0.024590421 0.44467327 0.43312806 0.06993307 -0.3306073 0.23757823 -0.25798908 0.09326924 -0.06408216 0.054270476 0.032310583 -0.121067695 -0.038058817 0.26761672 0.10583201 -0.14945492 0.16087016 -0.37076738 0.050273858 -0.03570933 -0.06254771 0.027600022 0.17695111 -0.22890669 0.335059 -0.0058687814 -0.09156521 -0.15199153 0.31042153 0.12711824 0.2855905 -0.017914994 -0.46255365 -0.060689956 -0.044704024 -0.38260368 0.23145176 0.22118403 -0.21595609 -0.0442858 -0.16805863 0.20219818 0.31698534 0.077857286 0.2860326 -0.13345042 -0.4141673
1067 0.011882172 -0.06529472 0.013736614 0.08159457 0.411066 0.34345704 0.09166402 -0.019305615 0.2547713 -0.5867199 0.3986 -0.10922003 -0.05453394 -0.43976682 -0.075897805 0.23370321 0.1760557 0.04736962 -0.38159096 -0.02653521 -0.14159249 -0.034710035 -0.041068736 0.0981405 -0.15697311 0.25845397 -0.3118397 0.44151127 -0.2641968 -0.45667616 -0.036993228 0.24310721 0.16685438 0.08347105 0.06059626 -0.4604703 0.0017534435 -0.05709903 -0.4404837 0.2508646 0.23108314 -0.074905 0.08123697 -0.24027273 0.28221503 0.44498938 -0.13051507 0.4401595 -0.21029814 -0.3801895
13 0.011158019 -0.058886353 0.18459874 -0.026946478 0.23556314 0.34844163 0.021498574 -0.19310284 0.22828986 -0.3028145 0.069090754 -0.14188144 -0.06536715 -0.10487685 0.06831021 -0.06078289 0.3273624 -0.010070778 -0.14271484 0.05152943 -0.25136474 0.06397488 -0.14247066 0.18466331 -0.21123621 0.07484163 -0.516238 0.40010715 0.025462255 -0.31967488 -0.22877519 0.18289755 0.08037303 0.46717316 -0.027989827 -0.54348195 -0.20365572 0.24355707 -0.2562953 0.0412192 0.15110658 0.13436191 0.015745377 -0.048300672 0.09144247 0.52672935 0.10668456 0.046768524 -0.13554528 -0.5595199
314 0.18250932 -0.079019725 0.10668938 0.016873637 0.23522188 0.35580862 0.08072907 -0.26019862 0.20367196 -0.5118379 0.08161186 0.069337904 -0.14997749 -0.074924074 -0.15440792 0.05425425 0.33442754 -0.06376851 -0.09011943 0.13930437 -0.25160247 0.13431682 -0.12920132 0.026245687 -0.0036249952 0.05002939 -0.5724966 0.32133222 0.09792637 -0.33688992 -0.17771985 0.14734596 -0.08338683 0.24521872 0.045095846 -0.47123268 -0.07073206 0.14129427 -0.3069294 0.11833301 -0.03685429 0.0025566577 0.117541745 -0.09014326 0.028142147 0.4754244 0.040598698 0.0043478208 -0.1748289 -0.41922843
240 0.55745596 -0.24274424 0.005923233 -0.06402488 0.19994682 0.6539411 -0.06427414 -0.33181167 0.40193757 0.009319772 -0.17041606 0.1455155 -0.6753466 -0.008953024 -0.35248548 -0.24969527 0.32836875 0.17525378 -0.1270318 0.22254479 -0.17296638 0.4041829 -0.1848681 -0.07111397 0.16699375 0.100734204 -0.4308911 0.023503387 -0.29808632 0.19249634 0.001318274 0.6151007 0.14591786 0.37323552 -0.006528739 -0.34485933 -0.184308 0.18733686 -0.3174585 0.26579788 0.21145262 0.22681467 0.4755619 0.02949363 0.0016312953 0.3011519 0.15847008 0.09545956 -0.32744008 -0.48824888
128 0.258077 -0.10900478 0.1265497 -0.09330278 0.25612712 0.70124334 0.13677993 -0.12158163 0.32422277 -0.34462598 0.011837928 -0.20823742 -0.31088823 -0.18938889 -0.16778967 -0.070988305 0.6138958 -0.06656235 -0.13365313 0.034388542 -0.15161681 0.37215453 0.020550791 0.12916124 0.28452003 -0.0035812513 -0.37888205 0.49656463 -0.00798844 -0.30437526 0.039555363 0.17213519 0.20461011 0.24023207 -0.13404998 -0.0029882835 -0.105246 0.4031393 -0.2547409 0.14121118 -0.15135203 0.38146564 0.36904678 0.027669769 0.16026013 0.43413305 -0.2985292 0.108077615 0.01722232 -0.5950662
2523 0.08728057 -0.0496613 -0.04699799 0.20785883 0.16204178 0.5712184 0.10325412 -0.1899789 0.37196073 -0.28751534 0.001548318 -0.26441732 -0.19940087 -0.40998894 -0.22313035 0.40308228 -0.102707006 0.13754484 0.03163257 0.11129956 -0.25351906 -0.062960714 -0.35234368 0.069866575 0.093528904 0.15789072 -0.3961256 0.05359199 -0.35633898 -0.2576027 -0.05881623 0.007833544 0.07959252 0.1447222 -0.3050827 -0.57579917 0.12781188 -0.13949606 -0.50457096 0.22412153 -0.030594861 0.091840304 0.2868064 -0.14553852 0.28518376 0.60664874 -0.04437975 0.43687943 -0.47659034 -0.073669225
991 0.11094038 0.11630475 0.23676568 -0.4543896 0.16035052 0.6750244 -0.38100258 -0.4513326 0.029481065 -0.6692092 -0.01426077 0.041390732 0.1814153 -0.3865276 -0.23642525 0.09042977 0.059301812 0.02089426 -0.4148844 0.019902397 -0.028644081 0.1714029 0.26921985 0.08192436 -0.111082666 0.45373866 -0.54627967 0.5780494 -0.41489202 -0.12674664 -0.21257688 0.14736745 0.47748145 0.2640237 0.08000494 -0.2148611 -0.30511984 -0.3131777 -0.73663497 0.5842738 -0.07273148 0.18912064 0.07119911 -0.019130114 0.30628446 0.20364453 0.25590855 0.2122306 -0.24797411 -0.2597658
2217 0.3883983 -0.035743494 0.10858487 -0.18384758 0.15194897 0.81655276 0.031674 -0.3376085 0.107269466 0.03575991 -0.028380692 -0.13387695 -0.40068293 -0.040838897 -0.068960726 -0.40312284 0.41211015 0.18360692 -0.17803478 0.25717178 -0.12887606 0.057885915 -0.08719626 0.019725116 0.039955143 0.046156224 -0.34736708 0.4130042 -0.023518385 -0.2313617 0.053717744 0.56367695 0.2185344 0.3919219 0.09917164 -0.2714902 -0.1865 0.57478225 -0.33134598 0.34009624 0.28238216 0.325425 0.3054256 0.07057972 0.07800068 0.37531415 0.010507501 0.4220903 0.005513272 -0.5313036
95 0.26540366 -0.22042565 -0.04746193 0.08029581 0.29363036 0.09250122 -0.031931233 -0.2533136 0.1088069 -0.35780698 0.026523005 0.1479697 -0.18141799 -0.048929732 -0.09715353 0.09952667 0.42665288 -0.029472088 -0.049380906 0.058261536 -0.27472362 -0.07895988 -0.14842446 0.070288904 -0.037520654 -0.019158043 -0.59999824 0.1824211 0.030008545 -0.30139318 0.012583219 0.28520468 0.06398921 0.0869551 0.0769041 -0.32978582 -0.23521158 0.12967528 -0.36871022 0.1845432 0.10044295 -0.09355683 0.24767815 -0.098777905 0.20273504 0.46708822 0.15005936 -0.035228882 -0.1923556 -0.3611362
2264 0.3981659 0.06291561 0.17206742 -0.14079359 0.22572517 0.5944746 -0.0565549 -0.4201257 0.18806021 -0.019140815 -0.1556926 0.13652927 -0.15674585 -0.13136442 -0.19756792 -0.17391887 0.28730455 0.14545266 -0.2463686 0.21786973 -0.10225844 0.21941195 -0.3761362 -0.05205861 -0.1410894 0.103859685 -0.5626682 0.19663185 -0.13354117 -0.1400039 -0.18414924 0.20951056 0.029537382 0.24758677 0.011637276 -0.36377293 0.0032087704 0.23428747 -0.27243334 0.27293608 0.44445196 0.034162626 0.22937371 -0.009421083 0.19122826 0.43490586 0.110266775 0.29628742 -0.076896034 -0.20559517
1128 0.56967074 -0.3337022 -0.043483697 0.15855943 0.3952949 0.49436384 0.13754372 -0.2450998 0.35004503 -0.15824799 -0.33544326 0.17619622 -0.3345205 0.008579093 -0.25638476 -0.117469154 0.60321647 0.34346807 -0.18855321 0.28226525 -0.22668113 0.2179439 -0.15579383 -0.05778304 0.03671301 -0.16110362 -0.27082458 0.18223232 -0.24595168 0.07519376 -0.077623464 0.39211097 0.29783967 0.13993618 0.072182745 -0.012152299 -0.2945955 0.40505952 -0.474073 0.11859285 0.18859057 0.27031222 0.13573629 -0.33095497 0.06940546 0.4305007 -0.17905602 0.12676793 -0.172155 -0.34689394
355 0.19399522 -0.15108186 0.0135432435 0.076471925 0.14946435 0.22233008 -0.062765285 -0.24229598 0.027724262 -0.41178876 0.06757246 0.12273813 0.0019972683 -0.086655825 0.1527838 -0.035697524 0.30782664 -0.14088249 -0.15948574 0.13069966 -0.26287356 -0.12870668 -0.20459713 0.1170163 -0.24911985 0.24051218 -0.6215384 0.31925717 -0.066531405 -0.33842078 -0.23464726 0.33279413 0.12469303 0.2506744 0.21403943 -0.33773178 -0.37757352 0.13007842 -0.4832889 0.25085822 0.29690784 -0.088443145 0.1508365 -0.17122836 0.13176152 0.36001247 0.23354425 0.41053542 -0.21588439 -0.2062358
126 0.43538296 -0.16458045 0.06541802 -0.010047561 0.43236238 0.9090179 -0.031848893 -0.3079837 0.4334082 -0.22511621 -0.11726542 -0.28707758 -0.49916282 -0.2644132 -0.19852807 -0.22851565 0.6103335 0.0026567366 -0.16937932 0.043374706 0.026515538 0.5186021 0.07691078 -0.009405936 0.21903495 0.09579819 -0.21650909 0.60624206 -0.402323 -0.03742646 0.056748502 0.45472434 0.5716327 0.40287286 -0.05161583 0.18438248 -0.1412152 0.39365718 -0.33461124 0.19505736 0.037090942 0.45919254 0.48105612 -0.017249947 0.31141818 0.2968908 -0.08034208 0.21493995 -0.0024220587 -0.62906426
27 0.057252575 -0.063931175 0.04012792 0.069854915 0.3484337 0.45356363 0.11947016 -0.21352088 0.35414568 -0.37005827 0.024547122 -0.085938804 -0.017623719 -0.25434422 -0.10789099 0.07242066 0.0828363 0.02203961 -0.17845333 0.007035379 -0.19702697 0.05975438 -0.1056804 0.069195956 0.0014775698 0.19339149 -0.31252816 0.26274145 -0.090440765 -0.19633508 -0.19269791 0.15475741 0.0594395 0.24539657 -0.034077454 -0.33094084 -0.010936791 -0.03560988 -0.37049866 0.1788961 0.1763169 0.035709504 0.14189804 -0.04963656 0.21525794 0.41000184 0.1250313 0.20225081 -0.1338117 -0.26813343
66 0.409864 -0.21981244 0.036259633 0.13491717 0.32849488 0.45252812 -0.0969866 -0.39332423 0.40409908 -0.38815826 0.05946788 -0.11318795 -0.3927411 -0.2982802 -0.27275136 0.09988333 0.3760945 0.047498174 -0.11589671 0.06283805 -0.1118718 0.12258416 0.0043130396 -0.14332555 0.052819874 0.116109796 -0.27717182 0.4823935 -0.2164852 -0.0053257644 -0.15384723 0.26690194 0.22658396 0.23049183 -0.107314296 -0.24848042 -0.08002198 0.034266025 -0.25388417 0.17473163 0.14545076 0.092198595 0.22470209 -0.07442027 0.2912349 0.37541065 0.09412499 0.07027289 -0.217352 -0.4311778
439 0.3971548 -0.21648815 0.102044895 0.13596447 0.14716129 0.7495515 0.109776124 -0.18212943 0.29304022 -0.15511897 0.1108813 -0.18822426 -0.293173 -0.12331026 -0.21955103 0.19449441 -0.09849066 0.29089043 -0.27319002 0.213076 -0.27041492 0.09627884 -0.4645218 -0.09962532 0.25571182 0.17312783 -0.43405956 -0.11115542 -0.13926932 -0.08218341 0.046817858 0.29086366 0.21719408 0.4387211 -0.24630314 -0.4957762 0.20838332 0.13018282 -0.4160641 0.25229672 0.018472271 0.37857652 0.48250002 0.1674455 0.2640148 0.66231793 0.028723331 0.15937129 -0.37889156 -0.46575692
2637 0.14981772 -0.04943341 0.0027009633 -0.14325978 0.118305266 0.3676684 -0.067707114 -0.23523565 0.18810809 -0.16826397 -0.17689118 -0.045322046 -0.2277858 -0.28990355 0.09958209 -0.20387906 0.30105945 -0.06240013 -0.10183238 0.14534515 -0.20207594 0.14266615 -0.20971194 0.14372525 -0.13012151 0.25648883 -0.40012652 0.3373013 -0.017588776 -0.2816342 -0.17905848 0.31757355 0.10631569 0.42237863 -0.09680407 -0.29369837 -0.08762429 0.3124699 -0.27442244 0.12706289 0.13216114 0.16379067 0.012544244 -0.09844504 0.09504771 0.47611368 0.24321048 0.16533594 -0.22964545 -0.34977266
226 -0.027321557 -0.18670444 0.143927 -0.04856405 0.34363717 0.36203727 -0.010491442 -0.27096045 0.23325284 -0.47602722 0.12722458 0.06994331 0.055499412 -0.15235089 -0.071881495 -0.04398229 0.2396727 0.049789682 -0.15638748 0.016653243 -0.27144122 0.04050948 -0.14390637 -0.1562982 -0.031578224 0.14886108 -0.34713924 0.3888504 -0.06469371 -0.33934557 -0.10041883 0.17393777 0.12594806 0.1460888 0.027591197 -0.35255262 0.008109915 -0.09143192 -0.49110216 0.15069763 0.24186945 -0.026216272 0.035258226 -0.01636298 0.27974397 0.34438294 0.10367874 0.27902406 -0.18484472 -0.29927897
1351 0.27931315 -0.37540263 0.020640297 -0.083935775 0.31055 0.330847 0.1335633 -0.22202653 0.2947553 -0.317295 -0.10828214 0.2171835 -0.35136807 -0.023451174 -0.2711127 -0.06682405 0.35883102 0.015391578 -0.17772083 0.13809429 -0.30891192 0.22594124 -0.21439792 -0.10540845 0.093024015 0.17614903 -0.3605195 0.09129888 -0.22428066 -0.09274786 -0.12563278 0.39081734 0.09474517 0.22084647 -0.13541171 -0.4261318 -0.08723143 0.13746549 -0.39157867 0.078391574 0.00991422 0.09233703 0.15973553 -0.102964215 -0.0030092576 0.35931638 0.023308706 -0.052626263 -0.3325027 -0.42901242
755 0.18711701 -0.14243926 -0.003869122 -0.01120019 0.061152466 0.63266516 -0.10122345 -0.28482112 0.25530362 -0.15189691 -0.21070978 -0.08113448 -0.4223308 -0.29127416 -0.10274663 -0.14347516 0.39256403 0.061786734 -0.039299335 0.1361555 -0.3414408 0.137365 -0.098440655 0.043970056 0.2250688 0.1470056 -0.4698187 0.34814665 -0.12442203 -0.07847745 -0.25840747 0.27598926 0.093764 0.45417908 -0.05250221 -0.51385236 -0.14533025 0.09669591 -0.34565544 -0.015176578 -0.059597522 0.22898346 0.34750846 -0.11924992 0.025771294 0.41880143 0.055520188 0.109710105 -0.23989679 -0.49149913
633 0.5026171 -0.4277161 0.044299003 0.019902505 0.32792515 0.42862493 0.16899133 -0.27026713 0.2897213 -0.24156193 -0.27037683 0.20992099 -0.44041383 -0.1450826 -0.3828752 0.011361549 0.38552105 0.13627727 -0.2078526 0.22965224 -0.2868066 0.31033555 -0.2974266 -0.3263382 0.13377604 0.17711525 -0.2858707 0.034989163 -0.37186882 0.062232748 -0.110693716 0.3985486 0.31893262 0.3923595 -0.22437751 -0.41820493 -0.13717519 0.15755817 -0.49652833 0.17688705 -0.038856454 0.30823737 0.22993545 -0.16968897 -0.058318347 0.26678467 0.112761766 -0.12601498 -0.3579563 -0.46456894
2456 -0.104314685 -0.11109404 0.15590864 -0.033627965 0.585701 0.60995585 -0.0989816 -0.24465175 0.2673314 -0.576773 0.3022203 -0.27166602 0.27429745 -0.13425215 0.14866346 0.067007445 0.039899755 0.204911 -0.06453689 0.16504553 -0.07173833 0.006521627 -0.25385374 0.12822391 -0.14694701 0.019515116 -0.52674335 0.36224827 -0.23187687 -0.6482995 -0.21833825 0.22149137 0.18875098 0.30760318 -0.013463308 -0.43243495 -0.037156954 -0.14982826 -0.15175906 0.13133907 0.07179055 -0.059301503 0.17478323 -0.07279224 0.38274473 0.41284648 0.34131157 0.15514204 -0.10060609 -0.4115177
2714 -0.14463575 -0.2221443 -0.0061670146 0.22398977 0.42991322 0.361227 0.2128429 -0.19142936 0.18125847 -0.30050838 0.1048913 -0.094903976 0.07651831 -0.22463268 -0.07949939 0.116719425 0.2646425 0.04158725 -0.16550234 -0.16310284 -0.1373449 -0.2113568 -0.30300584 0.3720149 -0.34908122 0.2183567 -0.56248784 0.01355314 -0.07555464 -0.54569906 -0.23338139 0.2542767 -0.116883345 0.35027632 -0.14828922 -0.58708864 -0.1755706 0.03991207 -0.12570754 -0.050962187 0.13690068 0.16399822 0.27346385 -0.2032013 0.14041032 0.55434656 -0.45194268 0.38905534 -0.37726057 -0.40214178
339 0.48065928 -0.15533361 -0.062368542 -0.021548107 0.3080209 0.24660128 -0.010199922 -0.23912834 0.18048152 -0.26186803 -0.0703262 0.3162922 -0.3426616 0.011719206 -0.25509995 -0.1386696 0.36507 -0.071513355 -0.063065454 0.24559614 -0.23623729 0.29048568 -0.15862416 -0.15843259 -0.10247836 0.12643817 -0.48649448 0.2857584 -0.03734569 0.010089976 -0.10093391 0.54349864 0.15052031 0.11759675 -0.031878747 -0.044166286 -0.2078025 0.14229654 -0.36232242 0.40426558 0.30147505 -0.036437638 0.2276546 -0.13117914 0.1533016 0.34736845 0.24238233 0.055627443 -0.2850439 -0.33872336
2684 -0.09033296 -0.08105153 0.10505901 0.020844027 0.55298716 0.39775375 -0.12252108 -0.18326375 0.18622272 -0.4273587 0.24499758 -0.2058599 -0.034810167 -0.29782355 0.0077582034 -0.06392824 0.108467236 0.11262013 -0.12728465 -0.06356922 -0.09664673 -0.10429113 -0.176976 0.12212249 -0.12170572 0.2642767 -0.4200208 0.24606279 -0.0012832435 -0.5866584 -0.19528843 0.34933582 0.029758653 0.3679449 -0.11582258 -0.48039 -0.28950623 0.042211417 -0.14443097 0.16272488 -0.05020002 0.080949806 0.09783455 -0.119565144 0.17985901 0.62406474 0.029448127 0.17708 -0.26833797 -0.5387937
1219 -0.061863977 -0.011103605 0.18965678 -0.12043309 0.24062626 0.6529519 -0.053679403 -0.3242755 0.3387545 -0.34334603 0.07675819 -0.009435053 -0.12680972 -0.12450071 0.033976063 0.06560008 0.09403864 -0.05401495 -0.09941045 -0.030495552 -0.30763063 0.10889802 0.07617274 0.18008545 -0.04073072 0.21522616 -0.40791562 0.23243284 -0.13773863 -0.12548324 -0.3165436 0.31329587 0.08535172 0.2969363 0.19129872 -0.45773697 -0.18809359 -0.08669315 -0.28676966 0.22776479 0.15866472 0.16563682 0.13068917 -0.13498515 0.07882061 0.452476 0.11021922 0.25424814 -0.07187337 -0.4827414
71 0.30630818 -0.14488126 -0.0009688513 0.080035746 0.27805597 0.20424227 -0.042686302 -0.27852052 0.20555189 -0.4024864 0.05767886 0.09208696 -0.25976807 -0.17166144 -0.1753145 0.18950708 0.48893532 -0.02841464 -0.0071515986 0.045475777 -0.2517942 -0.038845487 -0.099077284 0.0483208 0.05276755 -0.048896942 -0.5782355 0.3053492 0.08431225 -0.280948 -0.05140872 0.2275539 -0.022809494 0.09256414 -0.017593527 -0.41059694 -0.21079904 0.24761768 -0.2662294 0.16005737 0.057350572 0.028152741 0.24043724 -0.07515906 0.17963369 0.5381961 0.08366355 -0.16008392 -0.19322227 -0.45545003
2665 0.3953381 -0.1877502 0.021003054 -0.2839424 0.20612389 0.44365665 0.019161463 -0.115678445 0.20294929 -0.22462927 -0.16821976 0.45012116 -0.30399695 0.08005485 -0.21444947 -0.51164865 0.24655317 -0.009324976 -0.15434788 0.44379693 -0.24859239 0.5150473 -0.24064142 -0.12938789 -0.25579515 0.21562372 -0.456843 0.31897488 0.06557839 -0.06590908 -0.2877635 0.5913895 -0.03899707 0.15330377 -0.1177028 -0.038933605 -0.055187568 0.19914404 -0.43070734 0.42717308 0.431856 -0.05809333 7.765595e-05 -0.0665035 0.04164105 0.41455913 0.24223728 0.34481925 -0.3329372 -0.38797024
749 0.15866135 -0.30160773 -0.0020236145 0.016396528 0.41612887 0.3945634 -0.010199619 -0.31024435 0.28112453 -0.18686879 -0.030018391 0.13991515 -0.2248147 -0.12994307 -0.29168707 -0.062135443 0.18043649 0.028667461 -0.20879795 -0.0035404107 -0.35853243 0.10811622 -0.17338765 0.09666723 0.09085763 0.36219233 -0.23255873 0.18850775 -0.35582593 -0.18865925 -0.15089089 0.5082373 0.17683895 0.0875452 -0.1049863 -0.24679379 -0.18014728 0.016856821 -0.43454656 0.08738062 0.05019178 -0.080479816 0.10372034 -0.2025183 0.4152823 0.29462224 0.07182151 0.21732089 -0.31486556 -0.30988637
129 -0.14583947 -0.17925103 0.08024343 -0.29646906 0.4418667 0.33523732 0.053877223 -0.22723982 0.004006885 -0.5615093 0.12514254 0.27491412 -0.3473077 -0.21498673 -0.015222321 -0.26222128 0.07921686 0.32099238 -0.014062267 -0.064248264 0.027173514 -0.10562159 -0.1607135 -0.057850692 0.06340768 0.08993146 -0.18500584 0.36071852 0.099280365 -0.209907 -0.1936577 0.5750879 0.20199941 0.40300506 -0.11152796 -0.4842223 -0.15021367 0.05574583 -0.44163743 0.44191054 0.34202856 0.11602206 -0.21772158 0.049869496 0.262167 0.78905106 0.33208984 0.38013574 -0.11903245 -0.43510544
87 0.69699514 0.10253865 0.03997441 0.14204128 0.35511804 0.3310335 -0.06878676 -0.4592044 0.27404833 -0.11995073 0.0016742174 0.11352104 -0.4684893 -0.086309955 -0.2498261 0.14964485 0.66489244 0.15646774 -0.10104648 0.0646985 -0.03840938 -0.04299301 -0.24522793 -0.050874848 -0.11827462 -0.25498912 -0.8467853 0.0853164 -0.025231116 0.06941183 0.11248499 0.37046552 0.027382528 0.1408672 0.1239235 -0.40644708 -0.29559642 0.4491924 -0.19770318 0.48386297 0.42649582 -0.033880237 0.5178664 -0.2417986 0.32580584 0.5405562 0.1897513 0.18108511 -0.1133914 -0.013425136
1147 0.07933182 -0.15857273 0.09543512 0.046889927 0.2842161 0.4225633 0.05347266 -0.06575245 0.22731638 -0.26240915 0.111172296 -0.037898444 -0.10031686 -0.23755923 -0.11092712 0.045045044 0.23487064 0.032289404 -0.2260028 -0.054126102 -0.17169145 0.01551841 -0.15937062 0.06020358 -0.022625957 0.13787645 -0.35832042 0.23816203 -0.05090805 -0.24386331 -0.12090132 0.119456865 0.10671541 0.22215907 -0.14441116 -0.26570788 -0.033736102 0.03263383 -0.27343524 0.16810487 0.094726704 0.015102838 0.15480703 -0.09988545 0.21384367 0.40847796 -0.03447968 0.29955557 -0.23103663 -0.18569073
948 -0.10677577 -0.14371373 0.10555999 0.051129956 0.51700056 0.6983801 -0.084733926 -0.23241907 0.204728 -0.5854732 0.20952125 -0.20991781 0.06350161 -0.07527995 0.0061183483 0.0082827415 -0.012320957 0.11758873 -0.081273265 0.1780785 -0.048403766 -0.03641655 -0.17083614 -0.009271051 -0.030720092 0.053560525 -0.52889025 0.40693238 -0.27007657 -0.52984273 -0.11541034 0.12576738 0.10414307 0.22349024 -0.020944605 -0.36347634 -0.021958806 0.0036494718 -0.292159 0.24396414 0.016185418 -0.11351159 0.22010694 -0.06959057 0.36193576 0.38660285 0.24812101 0.17502303 -0.07096766 -0.28973106
147 0.22486348 -0.25573218 -0.0696776 -0.15458453 0.1371625 0.23767571 -0.05505047 0.022292808 0.30094194 -0.35609823 -0.09426109 0.11849356 -0.108502775 -0.14809889 0.06976505 -0.29717937 0.14809866 -0.07852338 -0.27876967 0.27502888 -0.016806694 -0.01851149 -0.29658917 0.082517534 -0.2601841 0.36445966 -0.51709056 0.24969947 -0.11365022 -0.13792011 -0.39116487 0.48392963 -0.09207696 0.32710788 0.083262354 -0.18901888 -0.12782231 0.22642498 -0.40123475 0.26108533 0.34035254 0.034470852 -0.067991585 -0.38509595 -0.08051651 0.39508492 0.019202339 0.5871031 -0.31485578 -0.17569278
2064 0.5265483 -0.26057187 -0.054961603 0.16911907 0.3901357 0.5752692 0.049616285 -0.27769512 0.13246918 -0.10932442 -0.26732823 0.1874692 -0.28940746 0.00076905824 -0.2549863 -0.16056271 0.5895578 0.19627164 -0.2326048 0.1742555 -0.16465041 0.24219124 -0.13976268 -0.16317528 0.113901496 -0.123548605 -0.2597371 0.2633325 -0.31472433 0.08265541 0.04336869 0.46984306 0.4754488 0.19874148 -0.019736273 -0.022092864 -0.3083116 0.35728058 -0.42251533 0.20283212 0.14229445 0.3224364 0.3719855 -0.2591134 0.094658904 0.36284757 0.0066349623 -0.111589976 -0.06394466 -0.5820692
839 -0.113066845 -0.2590337 -0.047637455 0.11171307 0.13834809 0.4219145 -0.009621734 -0.31932256 0.008750973 -0.35023323 -0.0031915652 -0.09740165 -0.24938099 -0.30121407 0.28709316 -0.66163844 0.36796677 -0.02730278 -0.21186337 0.01513136 -0.18536048 -0.2267087 -0.0067580123 -0.1680644 -0.02399275 0.36982796 -0.42050618 0.2705874 -0.041581973 -0.30291906 -0.25897056 0.45465508 0.08093236 0.67211556 -0.07412554 -0.5563502 -0.19715254 0.39466783 -0.36191717 -0.036561128 0.18780515 0.07922011 -0.002829447 0.02710851 -0.15293962 0.62537813 0.40769458 0.3883355 -0.064684264 -0.24997579
35 0.1623259 0.08761842 0.21702778 0.21877976 0.48749605 0.51867145 0.112216696 -0.25789753 0.26564544 -0.1435884 0.22954783 -0.29170746 0.1343989 0.022532346 -0.08727973 0.22825935 0.37208432 0.12592396 -0.2739902 -0.21376643 -0.026250036 -0.09129661 -0.37437528 0.12482478 -0.34953722 -0.24543117 -0.6013355 0.19155179 -0.16793741 -0.1476978 0.012384465 0.15539546 0.030492732 0.38103643 -0.13888986 -0.7007014 -0.3064675 0.32518858 0.06577085 0.23920088 0.31329593 0.11929059 0.33875272 -0.13325123 0.32100192 0.5253801 -0.10110964 0.24232776 0.0037584312 -0.3634314
744 0.00776775 -0.15135886 0.124356024 0.08642892 0.46826914 0.47951153 -0.015350885 0.020170055 0.30645445 -0.41972777 0.18065986 -0.31729484 0.10344247 -0.2930184 -0.14672183 0.18268548 0.035285432 0.12264116 -0.17234388 -0.059354894 -0.2023703 0.019246116 -0.31443915 0.1677491 -0.014352278 0.18830508 -0.4156799 0.1219283 -0.062543005 -0.6039855 -0.17949864 0.15959515 0.047118943 0.30383697 -0.33368325 -0.5066681 -0.26492837 0.13146687 -0.12811387 0.17798594 -0.051344186 0.28297687 0.31457728 -0.13974594 0.1605943 0.55898184 -0.2341089 0.15489486 -0.43696746 -0.55827564
2505 0.12338119 -0.056075934 0.122344874 -0.0041342997 0.104864605 0.56300825 -0.06531361 -0.21535565 0.25288045 -0.34597883 0.023497652 -0.07119312 -0.19525304 -0.23025642 -0.05882458 0.017227903 0.284488 0.091457374 -0.073051214 0.11237456 -0.2707589 0.0523435 -0.024317693 0.060617782 0.1353255 0.07336265 -0.5172865 0.37127888 -0.029162925 -0.21486722 -0.28886384 0.2749843 -0.06149004 0.3188577 -0.0058660856 -0.6572865 -0.1293883 0.020790271 -0.29911536 0.09005802 0.035910457 0.030677084 0.23848242 -0.1079006 0.03478936 0.42472154 0.07701203 0.07021922 -0.19758296 -0.42940623
469 0.18546636 -0.028471967 0.01629007 -0.08431233 0.008467361 0.401518 0.004255232 -0.36122954 0.30267248 -0.07148871 -0.28522015 -0.08423386 -0.12390565 -0.3286819 0.100659676 -0.062655985 0.21348868 -0.030770784 -0.110518225 0.13498637 -0.34160313 0.074601136 -0.26913372 0.14000611 -0.053708382 0.19894227 -0.42051753 0.21081571 -0.1687805 -0.347715 -0.12343727 0.116022184 0.089103505 0.25605315 -0.09409634 -0.4308917 0.1431173 0.15768099 -0.30788866 0.06070104 0.2081238 0.040723313 0.115076974 -0.07032778 0.15759405 0.42985705 0.23278603 0.2347642 -0.3565566 -0.12913057
2205 0.3768306 -0.19076522 -0.0359034 -0.17406058 0.25540018 0.3418969 0.039175343 -0.17616993 0.21153697 -0.30170262 -0.12030146 0.3588177 -0.3013791 0.021439841 -0.21188937 -0.30250135 0.24434635 -0.11427772 -0.07636842 0.3530263 -0.26839855 0.47285703 -0.1620462 -0.12053018 -0.16724828 0.21673666 -0.40857977 0.34342557 -0.025334131 -0.014908554 -0.2588544 0.51734865 0.08270692 0.14725372 -0.10313313 0.003206973 -0.13718893 0.1323778 -0.34898898 0.41123343 0.30360758 -0.026471956 0.07054938 -0.120303474 0.09881452 0.3232408 0.21765819 0.1771279 -0.36253437 -0.3625037
56 0.30111864 -0.16057253 -0.0249534 0.0006427747 0.32028365 0.18516286 0.13916194 -0.2581709 0.19769707 -0.3429106 -0.060461055 0.20353359 -0.15749907 0.05270426 -0.21800257 0.10117861 0.24943836 -0.056350585 -0.078611776 0.22082801 -0.2153806 -0.015264673 -0.09638843 -0.1094342 -0.044709418 0.1989377 -0.45603237 0.26632443 -0.059280492 -0.2267242 -0.09604663 0.35399303 0.20378071 0.08705545 -0.059331175 -0.25009933 -0.249426 0.006123137 -0.47185025 0.25271332 0.16984144 0.020055361 0.25468838 -0.19852081 0.19593014 0.40378836 0.10930601 0.15716343 -0.14217621 -0.3422607
2463 0.28329155 -0.3144775 -0.04017155 0.22550845 0.51116925 0.44549605 0.10831443 -0.2817695 0.11817904 -0.33367068 -0.24149545 0.24304062 0.02203422 -0.095825315 -0.25379956 0.024960851 0.2691175 0.091114536 -0.28973585 0.038814697 -0.3459706 0.16448027 -0.26016867 -0.19125949 -0.03200282 0.11640316 -0.1736732 0.22032377 -0.36623424 -0.065218784 -0.2055365 0.29853058 0.40291023 0.18067177 -0.14267488 -0.09213349 -0.2423931 -0.0016675399 -0.5120989 0.12636596 0.054310076 0.16084242 0.33363834 -0.39008778 0.10990389 0.36581284 -0.042475484 -0.037405297 -0.19196095 -0.45648974
705 0.026812946 -0.10773154 0.15437245 -0.10773269 0.3462098 0.46391472 0.10559245 -0.24403149 0.24722874 -0.3651824 0.10117431 0.011672806 -0.06277425 -0.14104931 -0.0670723 0.009719902 0.13280712 0.039768875 -0.2099905 0.038429677 -0.18739091 0.05930406 -0.057873696 0.06271718 -0.03356538 0.19761169 -0.3615826 0.1877845 -0.1684716 -0.22792864 -0.21800594 0.2421696 0.08638782 0.2128288 0.05685796 -0.2743842 -0.05027209 0.044756908 -0.33443233 0.19104561 0.22854495 0.0153141115 0.12102523 0.0029145023 0.12549919 0.44508228 0.10071385 0.28497887 -0.12981147 -0.29634073
